{"learner":{"attributes":{"scikit_learn":"{\"_estimator_type\": \"classifier\"}"},"feature_names":["MACD_hist","MACD","MA8","MA34","EMA8","volume_ratio","RSI","golden_0.618"],"feature_types":["float","float","float","float","float","float","float","float"],"gradient_booster":{"model":{"gbtree_model_param":{"num_parallel_tree":"1","num_trees":"100"},"iteration_indptr":[0,1,2,3,4,5,6,7,8,9,10,11,12,13,14,15,16,17,18,19,20,21,22,23,24,25,26,27,28,29,30,31,32,33,34,35,36,37,38,39,40,41,42,43,44,45,46,47,48,49,50,51,52,53,54,55,56,57,58,59,60,61,62,63,64,65,66,67,68,69,70,71,72,73,74,75,76,77,78,79,80,81,82,83,84,85,86,87,88,89,90,91,92,93,94,95,96,97,98,99,100],"tree_info":[0,0,0,0,0,0,0,0,0,0,0,0,0,0,0,0,0,0,0,0,0,0,0,0,0,0,0,0,0,0,0,0,0,0,0,0,0,0,0,0,0,0,0,0,0,0,0,0,0,0,0,0,0,0,0,0,0,0,0,0,0,0,0,0,0,0,0,0,0,0,0,0,0,0,0,0,0,0,0,0,0,0,0,0,0,0,0,0,0,0,0,0,0,0,0,0,0,0,0,0],"trees":[{"base_weights":[-7.052751E-3,-3.0264903E-2,3.9627537E-1,3.529523E-1,-4.7791388E-2,2.3459515E-1,7.259531E-1,1.924392E-1,2.776038E-1,5.0414535E-3,-1.4611746E-1,1.0918555E0,1.3431187E-1,1.0075533E0,-7.9601794E-2,6.179976E-2,1.0738702E-2,-7.8605665E-3,8.146438E-3,-1.934228E-2,7.926165E-3,1.4732631E-2,1.3817595E-1,6.95919E-2,-9.895126E-3,6.580277E-2,1.5193936E-1,-3.2809585E-2,8.4257714E-2],"categories":[],"categories_nodes":[],"categories_segments":[],"categories_sizes":[],"default_left":[0,0,0,0,0,0,0,0,0,0,0,0,0,0,0,0,0,0,0,0,0,0,0,0,0,0,0,0,0],"id":0,"left_children":[1,3,5,7,9,11,13,-1,15,17,19,21,23,25,27,-1,-1,-1,-1,-1,-1,-1,-1,-1,-1,-1,-1,-1,-1],"loss_changes":[2.110058E1,1.43289E1,6.367422E0,1.0514636E1,1.05908375E1,7.055147E0,9.127087E0,0E0,5.1606236E0,8.489483E0,7.6123247E0,2.16039E0,1.00432415E1,4.300041E0,2.8560708E0,0E0,0E0,0E0,0E0,0E0,0E0,0E0,0E0,0E0,0E0,0E0,0E0,0E0,0E0],"parents":[2147483647,0,0,1,1,2,2,3,3,4,4,5,5,6,6,8,8,9,9,10,10,11,11,12,12,13,13,14,14],"right_children":[2,4,6,8,10,12,14,-1,16,18,20,22,24,26,28,-1,-1,-1,-1,-1,-1,-1,-1,-1,-1,-1,-1,-1,-1],"split_conditions":[1.9759762E0,-1.6148199E0,5.3991127E-1,8.183747E1,8.331618E1,-1.0972304E0,3.196444E-1,1.924392E-1,-2.532042E-1,8.5715574E-1,6.625915E1,-3.8347528E0,1.3661029E1,7.972977E1,3.7914581E0,6.179976E-2,1.0738702E-2,-7.8605665E-3,8.146438E-3,-1.934228E-2,7.926165E-3,1.4732631E-2,1.3817595E-1,6.95919E-2,-9.895126E-3,6.580277E-2,1.5193936E-1,-3.2809585E-2,8.4257714E-2],"split_indices":[5,0,0,4,3,0,7,0,7,5,6,1,3,6,0,0,0,0,0,0,0,0,0,0,0,0,0,0,0],"split_type":[0,0,0,0,0,0,0,0,0,0,0,0,0,0,0,0,0,0,0,0,0,0,0,0,0,0,0,0,0],"sum_hessian":[2.2515457E3,2.129892E3,1.21653595E2,9.2313614E1,2.0375785E3,8.2772156E1,3.8881443E1,3.100974E0,8.921264E1,1.3260242E3,7.1155426E2,7.633167E0,7.5138985E1,2.8624376E1,1.0257068E1,2.8862911E1,6.0349724E1,6.3307574E2,6.929484E2,5.882309E2,1.2332335E2,2.1468282E0,5.4863386E0,2.146828E1,5.3670704E1,1.8367308E1,1.0257068E1,8.587313E0,1.6697552E0],"tree_param":{"num_deleted":"0","num_feature":"8","num_nodes":"29","size_leaf_vector":"1"}},{"base_weights":[-6.0721226E-3,-2.7165623E-2,3.577563E-1,3.1821862E-1,-4.3079756E-2,5.323988E-2,5.0984967E-1,1.7333053E-1,2.4914677E-1,2.1504778E-2,-1.11318976E-1,8.566269E-1,-1.6668835E-1,6.727518E-1,-9.151448E-2,8.645938E-2,1.63246E-2,-1.4122172E-3,2.364582E-2,-1.4851605E-2,4.7447938E-3,5.7535027E-3,1.3085425E-1,-3.0332109E-2,1.14515536E-1,5.4032404E-2,1.2966238E-1,1.08935855E-1,-4.518968E-2],"categories":[],"categories_nodes":[],"categories_segments":[],"categories_sizes":[],"default_left":[0,0,0,0,0,0,0,0,0,0,0,0,0,0,0,0,0,0,0,0,0,0,0,0,0,0,0,0,0],"id":1,"left_children":[1,3,5,7,9,11,13,-1,15,17,19,21,23,25,27,-1,-1,-1,-1,-1,-1,-1,-1,-1,-1,-1,-1,-1,-1],"loss_changes":[1.7291014E1,1.1717596E1,5.6912804E0,8.747197E0,8.977333E0,7.6065965E0,8.116644E0,0E0,4.654336E0,8.021929E0,5.855777E0,3.262074E0,6.441777E0,4.654604E0,8.32543E0,0E0,0E0,0E0,0E0,0E0,0E0,0E0,0E0,0E0,0E0,0E0,0E0,0E0,0E0],"parents":[2147483647,0,0,1,1,2,2,3,3,4,4,5,5,6,6,8,8,9,9,10,10,11,11,12,12,13,13,14,14],"right_children":[2,4,6,8,10,12,14,-1,16,18,20,22,24,26,28,-1,-1,-1,-1,-1,-1,-1,-1,-1,-1,-1,-1,-1,-1],"split_conditions":[1.9759762E0,-1.6148199E0,-1.254391E-1,8.183747E1,6.238371E1,-1.0208591E0,3.3816442E-1,1.7333053E-1,-5.415248E0,9.3645513E-1,6.625915E1,-5.4933053E-1,7.257778E-1,3.209887E0,1.2736197E-1,8.645938E-2,1.63246E-2,-1.4122172E-3,2.364582E-2,-1.4851605E-2,4.7447938E-3,5.7535027E-3,1.3085425E-1,-3.0332109E-2,1.14515536E-1,5.4032404E-2,1.2966238E-1,1.08935855E-1,-4.518968E-2],"split_indices":[5,0,7,4,3,0,7,0,1,1,6,7,0,5,0,0,0,0,0,0,0,0,0,0,0,0,0,0,0],"split_type":[0,0,0,0,0,0,0,0,0,0,0,0,0,0,0,0,0,0,0,0,0,0,0,0,0,0,0,0,0],"sum_hessian":[2.2508062E3,2.128338E3,1.2246827E2,9.2910324E1,2.0354276E3,4.124298E1,8.122529E1,3.2026596E0,8.9707664E1,1.0460682E3,9.8935925E2,8.241641E0,3.3001343E1,6.381884E1,1.7406445E1,9.877076E0,7.983059E1,8.981421E2,1.4792616E2,8.0161554E2,1.8774376E2,3.3844533E0,4.8571877E0,3.0584637E1,2.4167056E0,5.4183517E1,9.635323E0,3.5970664E0,1.3809378E1],"tree_param":{"num_deleted":"0","num_feature":"8","num_nodes":"29","size_leaf_vector":"1"}},{"base_weights":[-5.1707868E-3,-2.5124315E-2,3.1305674E-1,2.518734E-1,-4.1442152E-2,-8.14802E-2,4.188917E-1,1.6517776E-1,1.7955332E-1,2.9337041E-2,-9.954387E-2,3.4354615E-1,-5.8307934E-1,4.7000214E-1,-7.315026E-1,-3.9144545E-3,4.0782105E-2,-4.7207675E-3,1.9132761E-2,-1.3399707E-2,4.5223054E-3,-8.221903E-2,5.797705E-2,-8.386814E-2,6.536208E-2,3.768125E-2,1.1493266E-1,-3.5292772E-3,-9.526201E-2],"categories":[],"categories_nodes":[],"categories_segments":[],"categories_sizes":[],"default_left":[0,0,0,0,0,0,0,0,0,0,0,0,0,0,0,0,0,0,0,0,0,0,0,0,0,0,0,0,0],"id":2,"left_children":[1,3,5,7,9,11,13,-1,15,17,19,21,23,25,27,-1,-1,-1,-1,-1,-1,-1,-1,-1,-1,-1,-1,-1,-1],"loss_changes":[1.4299964E1,9.588015E0,5.5825453E0,1.1652149E1,8.235556E0,6.3706403E0,6.5136986E0,0E0,5.6744227E0,1.1209111E1,5.4907227E0,4.964289E0,4.861767E0,5.9659004E0,7.137759E-1,0E0,0E0,0E0,0E0,0E0,0E0,0E0,0E0,0E0,0E0,0E0,0E0,0E0,0E0],"parents":[2147483647,0,0,1,1,2,2,3,3,4,4,5,5,6,6,8,8,9,9,10,10,11,11,12,12,13,13,14,14],"right_children":[2,4,6,8,10,12,14,-1,16,18,20,22,24,26,28,-1,-1,-1,-1,-1,-1,-1,-1,-1,-1,-1,-1,-1,-1],"split_conditions":[1.9393735E0,-1.4135749E0,-3.354103E-1,8.183747E1,4.784813E1,-5.1061755E-1,2.3272519E2,1.6517776E-1,8.275229E-1,2.535E1,6.625915E1,1.1831625E1,4.9798656E1,1.2453529E2,2.145274E0,-3.9144545E-3,4.0782105E-2,-4.7207675E-3,1.9132761E-2,-1.3399707E-2,4.5223054E-3,-8.221903E-2,5.797705E-2,-8.386814E-2,6.536208E-2,3.768125E-2,1.1493266E-1,-3.5292772E-3,-9.526201E-2],"split_indices":[5,0,7,4,3,7,3,0,5,2,6,2,6,3,5,0,0,0,0,0,0,0,0,0,0,0,0,0,0],"split_type":[0,0,0,0,0,0,0,0,0,0,0,0,0,0,0,0,0,0,0,0,0,0,0,0,0,0,0,0,0],"sum_hessian":[2.2498088E3,2.1179312E3,1.3187766E2,1.17022415E2,2.0009087E3,2.7942463E1,1.0393519E2,4.675657E0,1.1234676E2,9.02267E2,1.0986416E3,1.5296329E1,1.2646134E1,1.000802E2,3.8549826E0,5.7799225E1,5.4547535E1,6.132155E2,2.8905157E2,8.874994E2,2.1114226E2,2.159404E0,1.3136925E1,1.0746814E1,1.8993204E0,8.937451E1,1.0705693E1,1.2087444E0,2.6462383E0],"tree_param":{"num_deleted":"0","num_feature":"8","num_nodes":"29","size_leaf_vector":"1"}},{"base_weights":[-4.594995E-3,-2.2551587E-2,2.8026015E-1,3.4243333E-1,-3.317766E-2,1.4603445E-1,5.527818E-1,4.2597726E-2,6.464847E-1,8.654581E-1,-3.7466295E-2,1.1405611E0,9.082766E-2,1.0471545E0,2.6747483E-1,-2.8135879E-2,4.2880792E-2,-3.761458E-2,8.1630014E-2,-1.7995842E-2,1.3205652E-1,-3.1830117E-3,-5.2696764E-2,1.4321218E-1,3.9604485E-2,4.6363834E-2,-7.76568E-3,1.3052124E-1,-2.73806E-2,-1.641159E-2,1.0386162E-1],"categories":[],"categories_nodes":[],"categories_segments":[],"categories_sizes":[],"default_left":[0,0,0,0,0,0,0,0,0,0,0,0,0,0,0,0,0,0,0,0,0,0,0,0,0,0,0,0,0,0,0],"id":3,"left_children":[1,3,5,7,9,11,13,15,17,19,21,23,25,27,29,-1,-1,-1,-1,-1,-1,-1,-1,-1,-1,-1,-1,-1,-1,-1,-1],"loss_changes":[1.151423E1,8.223143E0,4.802186E0,5.441289E0,7.9651337E0,4.8815403E0,5.882537E0,4.033494E0,5.467143E0,4.908851E0,5.6377068E0,4.5056915E-1,5.5074825E0,5.6904984E0,9.837705E0,0E0,0E0,0E0,0E0,0E0,0E0,0E0,0E0,0E0,0E0,0E0,0E0,0E0,0E0,0E0,0E0],"parents":[2147483647,0,0,1,1,2,2,3,3,4,4,5,5,6,6,7,7,8,8,9,9,10,10,11,11,12,12,13,13,14,14],"right_children":[2,4,6,8,10,12,14,16,18,20,22,24,26,28,30,-1,-1,-1,-1,-1,-1,-1,-1,-1,-1,-1,-1,-1,-1,-1,-1],"split_conditions":[1.9393735E0,-2.0262632E0,5.3991127E-1,8.220484E-1,3.9549904E0,-2.0262632E0,1.0511781E0,-3.2442626E-2,-5.252849E-1,-3.4382142E-2,4.1823975E2,1.270875E2,1.5167824E1,3.3306146E-1,8.607142E1,-2.8135879E-2,4.2880792E-2,-3.761458E-2,8.1630014E-2,-1.7995842E-2,1.3205652E-1,-3.1830117E-3,-5.2696764E-2,1.4321218E-1,3.9604485E-2,4.6363834E-2,-7.76568E-3,1.3052124E-1,-2.73806E-2,-1.641159E-2,1.0386162E-1],"split_indices":[5,0,0,5,2,0,0,7,7,0,3,2,4,7,6,0,0,0,0,0,0,0,0,0,0,0,0,0,0,0,0],"split_type":[0,0,0,0,0,0,0,0,0,0,0,0,0,0,0,0,0,0,0,0,0,0,0,0,0,0,0,0,0,0,0],"sum_hessian":[2.2488237E3,2.1163357E3,1.3248795E2,5.898796E1,2.0573477E3,8.979626E1,4.2691685E1,3.0273907E1,2.8714056E1,8.818064E0,2.0485298E3,3.6885638E0,8.610769E1,1.4644973E1,2.8046713E1,1.6611513E1,1.3662395E1,3.9161174E0,2.4797937E1,2.8578773E0,5.960186E0,2.026264E3,2.2265615E1,1.9869087E0,1.701655E0,2.6256756E1,5.9850937E1,1.2261529E1,2.383444E0,1.848708E1,9.559632E0],"tree_param":{"num_deleted":"0","num_feature":"8","num_nodes":"31","size_leaf_vector":"1"}},{"base_weights":[-3.928534E-3,-1.9718118E-2,2.6474935E-1,3.150136E-1,-2.959733E-2,4.2105533E-2,4.0058392E-1,3.8662735E-2,5.8639854E-1,7.787871E-1,-3.3496246E-2,7.229299E-1,-1.4433132E-1,5.5517197E-1,-1.2284946E-1,7.415407E-2,-1.2477256E-2,-3.478566E-2,7.350339E-2,-1.6714714E-2,1.1812035E-1,-1.3736675E-2,-6.9791084E-4,4.0621157E-3,1.1155444E-1,-2.5934115E-2,7.988234E-2,3.4747135E-2,9.92892E-2,9.698979E-2,-4.590122E-2],"categories":[],"categories_nodes":[],"categories_segments":[],"categories_sizes":[],"default_left":[0,0,0,0,0,0,0,0,0,0,0,0,0,0,0,0,0,0,0,0,0,0,0,0,0,0,0,0,0,0,0],"id":4,"left_children":[1,3,5,7,9,11,13,15,17,19,21,23,25,27,29,-1,-1,-1,-1,-1,-1,-1,-1,-1,-1,-1,-1,-1,-1,-1,-1],"loss_changes":[9.545544E0,7.036312E0,3.760252E0,4.5524416E0,6.5344543E0,6.2531295E0,6.3353024E0,3.6876352E0,4.519864E0,3.9861007E0,5.661982E0,2.78893E0,4.4226046E0,5.1074963E0,7.2327867E0,0E0,0E0,0E0,0E0,0E0,0E0,0E0,0E0,0E0,0E0,0E0,0E0,0E0,0E0,0E0,0E0],"parents":[2147483647,0,0,1,1,2,2,3,3,4,4,5,5,6,6,7,7,8,8,9,9,10,10,11,11,12,12,13,13,14,14],"right_children":[2,4,6,8,10,12,14,16,18,20,22,24,26,28,30,-1,-1,-1,-1,-1,-1,-1,-1,-1,-1,-1,-1,-1,-1,-1,-1],"split_conditions":[1.9759762E0,-2.0262632E0,-4.7149718E-2,8.220484E-1,3.9549904E0,-8.150191E-1,3.3816442E-1,1.192E2,-5.252849E-1,-3.4382142E-2,6.284806E-1,-5.4933053E-1,7.257778E-1,2.7259436E0,1.4972455E1,7.415407E-2,-1.2477256E-2,-3.478566E-2,7.350339E-2,-1.6714714E-2,1.1812035E-1,-1.3736675E-2,-6.9791084E-4,4.0621157E-3,1.1155444E-1,-2.5934115E-2,7.988234E-2,3.4747135E-2,9.92892E-2,9.698979E-2,-4.590122E-2],"split_indices":[5,0,7,5,2,0,7,2,7,0,5,7,0,5,3,0,0,0,0,0,0,0,0,0,0,0,0,0,0,0,0],"split_type":[0,0,0,0,0,0,0,0,0,0,0,0,0,0,0,0,0,0,0,0,0,0,0,0,0,0,0,0,0,0,0],"sum_hessian":[2.24785E3,2.1239568E3,1.23893456E2,6.000357E1,2.0639531E3,4.7442066E1,7.645139E1,3.0295834E1,2.9707735E1,8.952903E0,2.0550002E3,9.580109E0,3.7861958E1,5.897376E1,1.7477634E1,5.0481777E0,2.5247656E1,3.8936508E0,2.5814085E1,2.8464878E0,6.106415E0,4.1707846E2,1.6379218E3,3.9021618E0,5.6779466E0,3.4393044E1,3.4689162E0,4.1212173E1,1.7761583E1,3.6682467E0,1.3809387E1],"tree_param":{"num_deleted":"0","num_feature":"8","num_nodes":"31","size_leaf_vector":"1"}},{"base_weights":[-3.3171317E-3,-1.7680945E-2,2.4081369E-1,2.2686659E-1,-2.9119035E-2,2.723943E-1,-5.629419E-1,9.955272E-1,1.3149846E-1,1.121291E-2,-1.0480763E-1,1.7943011E-1,8.826536E-1,-9.557863E-2,-9.6401915E-2,1.2575151E-1,-5.2383255E-2,1.044706E-1,6.2931227E-3,-5.9543443E-3,7.549858E-3,7.2024376E-3,-1.4822929E-2,-9.385661E-3,3.3846665E-2,2.995113E-2,1.1133064E-1,-5.2512772E-2,3.758613E-2],"categories":[],"categories_nodes":[],"categories_segments":[],"categories_sizes":[],"default_left":[0,0,0,0,0,0,0,0,0,0,0,0,0,0,0,0,0,0,0,0,0,0,0,0,0,0,0,0,0],"id":5,"left_children":[1,3,5,7,9,11,13,15,17,19,21,23,25,27,-1,-1,-1,-1,-1,-1,-1,-1,-1,-1,-1,-1,-1,-1,-1],"loss_changes":[7.885849E0,5.9467916E0,3.3252597E0,6.8334217E0,6.1970153E0,6.701208E0,8.545482E-1,4.7722015E0,5.2985744E0,6.031367E0,5.428958E0,4.6467304E0,1.7821579E0,8.945055E-1,0E0,0E0,0E0,0E0,0E0,0E0,0E0,0E0,0E0,0E0,0E0,0E0,0E0,0E0,0E0],"parents":[2147483647,0,0,1,1,2,2,3,3,4,4,5,5,6,6,7,7,8,8,9,9,10,10,11,11,12,12,13,13],"right_children":[2,4,6,8,10,12,14,16,18,20,22,24,26,28,-1,-1,-1,-1,-1,-1,-1,-1,-1,-1,-1,-1,-1,-1,-1],"split_conditions":[1.9759762E0,-1.6148199E0,2.3272519E2,9.169525E1,8.331618E1,1.2453529E2,3.077504E-1,-6.555244E-2,-5.9657445E0,8.5715574E-1,-4.6415395E-1,5.6439392E1,-3.496295E-1,6.415042E-2,-9.6401915E-2,1.2575151E-1,-5.2383255E-2,1.044706E-1,6.2931227E-3,-5.9543443E-3,7.549858E-3,7.2024376E-3,-1.4822929E-2,-9.385661E-3,3.3846665E-2,2.995113E-2,1.1133064E-1,-5.2512772E-2,3.758613E-2],"split_indices":[5,0,3,4,3,3,7,7,1,5,7,6,7,7,0,0,0,0,0,0,0,0,0,0,0,0,0,0,0],"split_type":[0,0,0,0,0,0,0,0,0,0,0,0,0,0,0,0,0,0,0,0,0,0,0,0,0,0,0,0,0],"sum_hessian":[2.246613E3,2.1226511E3,1.23961876E2,9.4003914E1,2.0286473E3,1.199115E2,4.0503817E0,9.333969E0,8.4669945E1,1.3239891E3,7.0465814E2,1.0518249E2,1.4729009E1,2.4425068E0,1.6078746E0,8.108189E0,1.2257806E0,4.919097E0,7.975085E1,6.303096E2,6.936796E2,1.3878915E2,5.6586896E2,3.8843708E1,6.633878E1,4.8260946E0,9.902914E0,1.218447E0,1.2240598E0],"tree_param":{"num_deleted":"0","num_feature":"8","num_nodes":"29","size_leaf_vector":"1"}},{"base_weights":[-2.9001378E-3,-9.196333E-3,4.9313447E-1,2.966244E-1,-1.819074E-2,7.1499044E-1,-4.357812E-1,7.595503E-1,1.3474008E-1,-6.2359504E-2,4.731517E-2,1.9248559E-1,1.0446752E0,-7.3224175E-1,4.1239332E-2,-3.437094E-2,9.122285E-2,-1.2063431E-2,4.199246E-2,1.6314595E-3,-2.169385E-2,3.6010046E-2,2.4957228E-3,8.811063E-2,-5.285988E-2,-9.812896E-3,1.163265E-1,-2.9853592E-2,-1.0324075E-1],"categories":[],"categories_nodes":[],"categories_segments":[],"categories_sizes":[],"default_left":[0,0,0,0,0,0,0,0,0,0,0,0,0,0,0,0,0,0,0,0,0,0,0,0,0,0,0,0,0],"id":6,"left_children":[1,3,5,7,9,11,13,15,17,19,21,23,25,27,-1,-1,-1,-1,-1,-1,-1,-1,-1,-1,-1,-1,-1,-1,-1],"loss_changes":[7.020525E0,6.1099315E0,6.118112E0,4.653659E0,6.243315E0,3.7819796E0,1.8240529E0,3.0469456E0,3.563654E0,1.5675236E1,6.069359E0,5.5162425E0,2.0048666E0,3.2262182E-1,0E0,0E0,0E0,0E0,0E0,0E0,0E0,0E0,0E0,0E0,0E0,0E0,0E0,0E0,0E0],"parents":[2147483647,0,0,1,1,2,2,3,3,4,4,5,5,6,6,7,7,8,8,9,9,10,10,11,11,12,12,13,13],"right_children":[2,4,6,8,10,12,14,16,18,20,22,24,26,28,-1,-1,-1,-1,-1,-1,-1,-1,-1,-1,-1,-1,-1,-1,-1],"split_conditions":[2.8939092E0,-2.0262632E0,3.2247624E-1,1.1937417E2,5.6439392E1,-2.8958809E-2,1.1146875E2,-5.6944156E-1,8.220484E-1,-1.254391E-1,-2.0297651E-1,-2.2855988E-1,5.3488384E1,8.4380936E1,4.1239332E-2,-3.437094E-2,9.122285E-2,-1.2063431E-2,4.199246E-2,1.6314595E-3,-2.169385E-2,3.6010046E-2,2.4957228E-3,8.811063E-2,-5.285988E-2,-9.812896E-3,1.163265E-1,-2.9853592E-2,-1.0324075E-1],"split_indices":[5,0,7,4,6,7,2,7,5,7,1,1,6,6,0,0,0,0,0,0,0,0,0,0,0,0,0,0,0],"split_type":[0,0,0,0,0,0,0,0,0,0,0,0,0,0,0,0,0,0,0,0,0,0,0,0,0,0,0,0,0],"sum_hessian":[2.2454607E3,2.2182854E3,2.7175358E1,6.2463753E1,2.1558215E3,2.2122149E1,5.05321E0,1.5227401E1,4.723635E1,1.2876465E3,8.6817523E2,9.171087E0,1.2951061E1,3.845712E0,1.207498E0,1.6990186E0,1.3528381E1,2.5225052E1,2.2011301E1,8.5392804E2,4.337184E2,5.6909603E1,8.112656E2,4.577628E0,4.593459E0,1.233813E0,1.1717248E1,2.388773E0,1.456939E0],"tree_param":{"num_deleted":"0","num_feature":"8","num_nodes":"29","size_leaf_vector":"1"}},{"base_weights":[-2.5607315E-3,-1.6172513E-2,1.8610398E-1,7.1141285E-1,-1.965921E-2,9.936422E-1,1.5769853E-1,1.1049096E-1,1.3730066E-1,3.6446872E-1,-2.5413813E-2,2.9792437E-2,1.14599206E-1,-3.3772814E-1,2.4393131E-1,-7.718279E-2,7.357665E-2,7.226457E-2,-1.1182691E-2,-2.0263242E-3,-4.1870255E-2,2.0013514E-3,-7.79057E-2,1.6160594E-1,2.0984968E-2],"categories":[],"categories_nodes":[],"categories_segments":[],"categories_sizes":[],"default_left":[0,0,0,0,0,0,0,0,0,0,0,0,0,0,0,0,0,0,0,0,0,0,0,0,0],"id":7,"left_children":[1,3,5,7,9,11,13,15,-1,17,19,-1,-1,21,23,-1,-1,-1,-1,-1,-1,-1,-1,-1,-1],"loss_changes":[5.7695665E0,5.3294954E0,3.3112712E0,3.8319092E0,4.6209993E0,1.8310118E-1,6.3726387E0,4.0646667E0,0E0,5.3451934E0,4.1571374E0,0E0,0E0,3.528094E0,5.552674E0,0E0,0E0,0E0,0E0,0E0,0E0,0E0,0E0,0E0,0E0],"parents":[2147483647,0,0,1,1,2,2,3,3,4,4,5,5,6,6,7,7,9,9,10,10,13,13,14,14],"right_children":[2,4,6,8,10,12,14,16,-1,18,20,-1,-1,22,24,-1,-1,-1,-1,-1,-1,-1,-1,-1,-1],"split_conditions":[1.8663775E0,3.9549904E0,-2.0262632E0,3.8959043E0,1.7041794E1,-4.1270943E0,3.5533966E1,-3.4382142E-2,1.3730066E-1,-8.24376E-1,4.1823975E2,2.9792437E-2,1.14599206E-1,-5.1061755E-1,-2.3312438E0,-7.718279E-2,7.357665E-2,7.226457E-2,-1.1182691E-2,-2.0263242E-3,-4.1870255E-2,2.0013514E-3,-7.79057E-2,1.6160594E-1,2.0984968E-2],"split_indices":[5,2,0,3,6,1,6,0,0,1,3,0,0,7,1,0,0,0,0,0,0,0,0,0,0],"split_type":[0,0,0,0,0,0,0,0,0,0,0,0,0,0,0,0,0,0,0,0,0,0,0,0,0],"sum_hessian":[2.2444885E3,2.094303E3,1.5018552E2,9.020002E0,2.085283E3,3.9486527E0,1.4623686E2,5.3382807E0,3.6817222E0,2.9858385E1,2.0554248E3,1.2402911E0,2.7083614E0,2.1247686E1,1.24989174E2,2.1168451E0,3.2214353E0,1.6747187E1,1.3111198E1,2.0298925E3,2.5532274E1,1.2262412E1,8.985273E0,1.9043088E0,1.2308487E2],"tree_param":{"num_deleted":"0","num_feature":"8","num_nodes":"25","size_leaf_vector":"1"}},{"base_weights":[-2.141017E-3,2.0040955E-1,-1.4192394E-2,1.3482092E-1,1.3575703E-1,4.797371E-2,-6.467413E-2,6.852967E-2,6.243942E-1,-1.8904286E-2,1.928223E-1,-1.0241938E-1,9.49215E-2,1.7054183E-2,-4.262967E-2,1.2738791E-1,3.6603664E-3,-1.5849343E-2,1.2088045E-2,9.370283E-2,1.1717766E-2,4.7403956E-3,-1.4013155E-2,1.3779853E-1,6.808936E-3],"categories":[],"categories_nodes":[],"categories_segments":[],"categories_sizes":[],"default_left":[0,0,0,0,0,0,0,0,0,0,0,0,0,0,0,0,0,0,0,0,0,0,0,0,0],"id":8,"left_children":[1,3,5,-1,7,9,11,13,15,17,19,21,23,-1,-1,-1,-1,-1,-1,-1,-1,-1,-1,-1,-1],"loss_changes":[5.4821568E0,9.176165E0,6.6548395E0,0E0,3.915857E0,9.210653E0,7.0585904E0,5.4767275E0,5.470253E0,1.2724286E1,1.6795753E1,5.356246E0,7.6292596E0,0E0,0E0,0E0,0E0,0E0,0E0,0E0,0E0,0E0,0E0,0E0,0E0],"parents":[2147483647,0,0,1,1,2,2,4,4,5,5,6,6,7,7,8,8,9,9,10,10,11,11,12,12],"right_children":[2,4,6,-1,8,10,12,14,16,18,20,22,24,-1,-1,-1,-1,-1,-1,-1,-1,-1,-1,-1,-1],"split_conditions":[-1.4135749E0,7.8554855E1,4.7280212E1,1.3482092E-1,3.1972888E2,2.535E1,7.010068E-1,2.3272519E2,4.1823975E2,8.941944E-1,2.8051804E1,-4.6415395E-1,-4.7514287E-1,1.7054183E-2,-4.262967E-2,1.2738791E-1,3.6603664E-3,-1.5849343E-2,1.2088045E-2,9.370283E-2,1.1717766E-2,4.7403956E-3,-1.4013155E-2,1.3779853E-1,6.808936E-3],"split_indices":[0,4,3,0,4,2,0,3,3,5,4,7,7,0,0,0,0,0,0,0,0,0,0,0,0],"split_type":[0,0,0,0,0,0,0,0,0,0,0,0,0,0,0,0,0,0,0,0,0,0,0,0,0],"sum_hessian":[2.2436877E3,1.2512081E2,2.118567E3,5.613268E0,1.19507545E2,9.494318E2,1.1691351E3,1.06056404E2,1.3451136E1,6.5013E2,2.9930182E2,9.4580524E2,2.2332993E2,8.847249E1,1.7583916E1,5.835695E0,7.6154404E0,3.2522565E2,3.249044E2,2.6564838E1,2.7273697E2,1.901436E2,7.556616E2,3.5432339E0,2.1978668E2],"tree_param":{"num_deleted":"0","num_feature":"8","num_nodes":"25","size_leaf_vector":"1"}},{"base_weights":[-1.7478232E-3,-7.0920167E-3,4.1930965E-1,6.53993E-1,-1.0093927E-2,6.2495035E-1,-4.345243E-1,9.921755E-2,1.2562317E0,2.5138777E-1,-1.7825207E-2,1.541773E-1,9.244347E-1,-7.165352E-1,3.753118E-2,-7.247008E-2,6.721818E-2,4.807328E-2,1.4645992E-1,6.47284E-2,1.1304321E-2,-5.8137635E-3,4.166641E-3,7.691982E-2,-4.9658507E-2,1.2033647E-1,2.7258387E-2,-1.0024425E-1,-2.9885361E-2],"categories":[],"categories_nodes":[],"categories_segments":[],"categories_sizes":[],"default_left":[0,0,0,0,0,0,0,0,0,0,0,0,0,0,0,0,0,0,0,0,0,0,0,0,0,0,0,0,0],"id":9,"left_children":[1,3,5,7,9,11,13,15,17,19,21,23,25,27,-1,-1,-1,-1,-1,-1,-1,-1,-1,-1,-1,-1,-1,-1,-1],"loss_changes":[5.0514555E0,4.40513E0,5.211701E0,3.2278652E0,4.4669085E0,3.112174E0,1.6508473E0,3.4653025E0,5.951357E-2,3.4024367E0,5.1465015E0,4.454644E0,2.2009258E0,2.7741838E-1,0E0,0E0,0E0,0E0,0E0,0E0,0E0,0E0,0E0,0E0,0E0,0E0,0E0,0E0,0E0],"parents":[2147483647,0,0,1,1,2,2,3,3,4,4,5,5,6,6,7,7,8,8,9,9,10,10,11,11,12,12,13,13],"right_children":[2,4,6,8,10,12,14,16,18,20,22,24,26,28,-1,-1,-1,-1,-1,-1,-1,-1,-1,-1,-1,-1,-1,-1,-1],"split_conditions":[2.8939092E0,3.9549904E0,3.2247624E-1,3.8959043E0,-2.0262632E0,-2.8958809E-2,3.7659466E-1,-3.4382142E-2,8.6376184E-1,1.1937417E2,5.6439392E1,-2.2855988E-1,2.481888E-1,3.5006675E-1,3.753118E-2,-7.247008E-2,6.721818E-2,4.807328E-2,1.4645992E-1,6.47284E-2,1.1304321E-2,-5.8137635E-3,4.166641E-3,7.691982E-2,-4.9658507E-2,1.2033647E-1,2.7258387E-2,-1.0024425E-1,-2.9885361E-2],"split_indices":[5,2,7,3,0,7,7,0,5,4,6,1,7,7,0,0,0,0,0,0,0,0,0,0,0,0,0,0,0],"split_type":[0,0,0,0,0,0,0,0,0,0,0,0,0,0,0,0,0,0,0,0,0,0,0,0,0,0,0,0,0],"sum_hessian":[2.2425574E3,2.2154216E3,2.7135672E1,9.034219E0,2.2063875E3,2.2084759E1,5.050913E0,5.3086753E0,3.7255435E0,6.2458134E1,2.1439294E3,9.175767E0,1.2908992E1,3.8317754E0,1.2191374E0,2.0688527E0,3.2398224E0,1.4894121E0,2.2361317E0,1.5221233E1,4.72369E1,1.2779761E3,8.6595337E2,4.6238627E0,4.5519037E0,8.447986E0,4.4610066E0,1.4436002E0,2.3881752E0],"tree_param":{"num_deleted":"0","num_feature":"8","num_nodes":"29","size_leaf_vector":"1"}},{"base_weights":[-1.4240578E-3,-3.300931E-1,4.5638573E-3,-4.774202E-1,4.1537705E-1,-9.448285E-3,1.4351058E-1,5.028499E-1,-6.253482E-1,8.072951E-1,-2.629287E-1,-5.406289E-3,-8.210622E-1,-4.1958474E-2,3.0644882E-1,-9.557854E-2,1.346967E-1,-9.054156E-2,-1.0569362E-2,1.0867496E-2,1.1440637E-1,-8.8682175E-2,4.8052777E-2,-1.0285093E-3,5.222599E-2,-1.0334345E-1,2.5567506E-2,1.0637096E-2,-6.4334735E-2,6.994496E-2,1.2162136E-2],"categories":[],"categories_nodes":[],"categories_segments":[],"categories_sizes":[],"default_left":[0,0,0,0,0,0,0,0,0,0,0,0,0,0,0,0,0,0,0,0,0,0,0,0,0,0,0,0,0,0,0],"id":10,"left_children":[1,3,5,7,9,11,13,15,17,19,21,23,25,27,29,-1,-1,-1,-1,-1,-1,-1,-1,-1,-1,-1,-1,-1,-1,-1,-1],"loss_changes":[4.414845E0,4.606589E0,4.2911763E0,5.2418504E0,2.1152048E0,6.564706E0,6.114455E0,7.4556303E0,4.2661047E0,1.0008743E0,1.9919083E0,5.137505E0,2.5318408E0,8.569909E0,7.7308397E0,0E0,0E0,0E0,0E0,0E0,0E0,0E0,0E0,0E0,0E0,0E0,0E0,0E0,0E0,0E0,0E0],"parents":[2147483647,0,0,1,1,2,2,3,3,4,4,5,5,6,6,7,7,8,8,9,9,10,10,11,11,12,12,13,13,14,14],"right_children":[2,4,6,8,10,12,14,16,18,20,22,24,26,28,30,-1,-1,-1,-1,-1,-1,-1,-1,-1,-1,-1,-1,-1,-1,-1,-1],"split_conditions":[2.5360304E-1,4.1391724E-1,7.5757545E1,-5.378544E-1,8.656371E-1,7.5390625E1,3.3266738E-1,-4.2058733E-1,4.1574758E-2,8.260294E1,2.481888E-1,2.8939092E0,1.18175E2,2.411555E-1,2.481888E-1,-9.557854E-2,1.346967E-1,-9.054156E-2,-1.0569362E-2,1.0867496E-2,1.1440637E-1,-8.8682175E-2,4.8052777E-2,-1.0285093E-3,5.222599E-2,-1.0334345E-1,2.5567506E-2,1.0637096E-2,-6.4334735E-2,6.994496E-2,1.2162136E-2],"split_indices":[5,0,6,7,1,6,0,0,7,3,7,5,2,0,7,0,0,0,0,0,0,0,0,0,0,0,0,0,0,0,0],"split_type":[0,0,0,0,0,0,0,0,0,0,0,0,0,0,0,0,0,0,0,0,0,0,0,0,0,0,0,0,0,0,0],"sum_hessian":[2.241502E3,3.9138042E1,2.2023638E3,3.297982E1,6.1582236E0,2.0014579E3,2.009059E2,4.009684E0,2.8970137E1,3.7825446E0,2.375679E0,1.9925414E3,8.916586E0,9.43041E1,1.0660181E2,1.4213316E0,2.5883524E0,1.8342257E1,1.062788E1,1.660522E0,2.1220226E0,1.1868571E0,1.1888218E0,1.9752587E3,1.7282743E1,7.481229E0,1.4353571E0,7.6306595E1,1.7997501E1,3.3207653E1,7.339415E1],"tree_param":{"num_deleted":"0","num_feature":"8","num_nodes":"31","size_leaf_vector":"1"}},{"base_weights":[-1.2986921E-3,1.7436929E-1,-1.1768427E-2,1.2394096E-1,1.15320764E-1,2.0775814E-3,-2.146979E-1,5.6657666E-1,4.3469924E-2,-1.7119212E-2,1.3265994E-1,-4.211086E-1,1.6255584E-1,9.1378115E-2,-3.631536E-2,-4.672289E-2,1.0591095E-2,-2.6715053E-3,3.5388384E-2,-1.50139555E-2,2.4827735E-2,-2.98702E-2,-8.213532E-2,3.637799E-2,-2.6182804E-2],"categories":[],"categories_nodes":[],"categories_segments":[],"categories_sizes":[],"default_left":[0,0,0,0,0,0,0,0,0,0,0,0,0,0,0,0,0,0,0,0,0,0,0,0,0],"id":11,"left_children":[1,3,5,-1,7,9,11,13,15,17,19,21,23,-1,-1,-1,-1,-1,-1,-1,-1,-1,-1,-1,-1],"loss_changes":[4.1255236E0,7.7917376E0,5.9482255E0,0E0,3.887032E0,4.972202E0,1.05976715E1,5.6542344E0,3.4027681E0,6.1662283E0,8.349392E0,4.050152E0,4.2404118E0,0E0,0E0,0E0,0E0,0E0,0E0,0E0,0E0,0E0,0E0,0E0,0E0],"parents":[2147483647,0,0,1,1,2,2,4,4,5,5,6,6,7,7,8,8,9,9,10,10,11,11,12,12],"right_children":[2,4,6,-1,8,10,12,14,16,18,20,22,24,-1,-1,-1,-1,-1,-1,-1,-1,-1,-1,-1,-1],"split_conditions":[-1.4135749E0,7.8554855E1,1.5957353E2,1.2394096E-1,-4.9512825E0,5.3991127E-1,5.851063E1,1.4847362E0,-3.3303008E0,1.4013312E2,-1.7872876E-1,2.3534384E-1,8.983649E0,9.1378115E-2,-3.631536E-2,-4.672289E-2,1.0591095E-2,-2.6715053E-3,3.5388384E-2,-1.50139555E-2,2.4827735E-2,-2.98702E-2,-8.213532E-2,3.637799E-2,-2.6182804E-2],"split_indices":[0,4,3,0,1,0,6,5,1,3,7,0,1,0,0,0,0,0,0,0,0,0,0,0,0],"split_type":[0,0,0,0,0,0,0,0,0,0,0,0,0,0,0,0,0,0,0,0,0,0,0,0,0],"sum_hessian":[2.240995E3,1.251693E2,2.115826E3,5.525098E0,1.19644196E2,1.9816091E3,1.342167E2,1.5487872E1,1.0415633E2,1.7283892E3,2.5322E2,8.6676346E1,4.7540363E1,1.1289138E1,4.1987333E0,1.0641103E1,9.351522E1,1.6857168E3,4.2672382E1,7.3395775E1,1.7982422E2,6.7713776E1,1.896257E1,3.2346085E1,1.5194276E1],"tree_param":{"num_deleted":"0","num_feature":"8","num_nodes":"25","size_leaf_vector":"1"}},{"base_weights":[-1.1544438E-3,4.4599304E-1,-5.0178454E-3,1.2743452E0,9.3388595E-2,4.599135E-2,-4.368622E-2,1.5118949E-1,5.4060407E-2,-2.7293095E-1,1.0723884E0,-1.3073068E-2,1.695543E-1,-6.9810525E-2,6.813213E-2,4.494943E-2,-6.798174E-2,4.1102607E-2,1.3605924E-1,-1.3675861E-2,1.099325E-2,8.3720855E-2,1.0296506E-2,4.6268946E-5,-1.5610251E-2,2.1956017E-2,-8.165429E-3],"categories":[],"categories_nodes":[],"categories_segments":[],"categories_sizes":[],"default_left":[0,0,0,0,0,0,0,0,0,0,0,0,0,0,0,0,0,0,0,0,0,0,0,0,0,0,0],"id":12,"left_children":[1,3,5,7,9,11,13,-1,-1,15,17,19,21,23,25,-1,-1,-1,-1,-1,-1,-1,-1,-1,-1,-1,-1],"loss_changes":[3.8737304E0,5.491407E0,4.3865004E0,1.6851997E-1,5.511554E0,7.000987E0,3.699748E0,0E0,0E0,3.6527247E0,2.3470974E-1,9.900443E0,1.3705677E1,6.2207756E0,5.4629173E0,0E0,0E0,0E0,0E0,0E0,0E0,0E0,0E0,0E0,0E0,0E0,0E0],"parents":[2147483647,0,0,1,1,2,2,3,3,4,4,5,5,6,6,9,9,10,10,11,11,12,12,13,13,14,14],"right_children":[2,4,6,8,10,12,14,-1,-1,16,18,20,22,24,26,-1,-1,-1,-1,-1,-1,-1,-1,-1,-1,-1,-1],"split_conditions":[-3.0401628E0,-2.532042E-1,4.784813E1,1.7415999E0,-2.5738116E-2,2.535E1,2.557463E0,1.5118949E-1,5.4060407E-2,1.7756E2,1.76925E2,8.941944E-1,2.8051804E1,-1.17903545E-1,1.276059E2,4.494943E-2,-6.798174E-2,4.1102607E-2,1.3605924E-1,-1.3675861E-2,1.099325E-2,8.3720855E-2,1.0296506E-2,4.6268946E-5,-1.5610251E-2,2.1956017E-2,-8.165429E-3],"split_indices":[0,7,3,5,7,2,1,0,0,4,2,5,4,1,3,0,0,0,0,0,0,0,0,0,0,0,0],"split_type":[0,0,0,0,0,0,0,0,0,0,0,0,0,0,0,0,0,0,0,0,0,0,0,0,0,0,0],"sum_hessian":[2.2400823E3,1.8208447E1,2.2218738E3,4.656089E0,1.3552359E1,9.579755E2,1.2638982E3,2.716189E0,1.9398998E0,1.0386994E1,3.1653636E0,6.4875696E2,3.092186E2,1.024839E3,2.3905916E2,3.704663E0,6.6823316E0,1.6970909E0,1.4682727E0,3.2342862E2,3.253283E2,2.6993784E1,2.8222482E2,5.6539526E2,4.5944376E2,1.18646515E2,1.2041264E2],"tree_param":{"num_deleted":"0","num_feature":"8","num_nodes":"27","size_leaf_vector":"1"}},{"base_weights":[-8.620922E-4,6.135308E-1,-3.6146056E-3,9.083568E-2,1.1756604E-1,-6.646607E-1,-6.4118864E-4,-6.801864E-2,6.17024E-1,-9.7282134E-2,-1.308164E-1,7.165668E-1,-3.7408222E-3,1.03782944E-1,-2.178222E-2,7.186969E-2,-4.7280233E-2,1.275541E-1,-4.417076E-2,-8.809457E-3,1.649252E-3],"categories":[],"categories_nodes":[],"categories_segments":[],"categories_sizes":[],"default_left":[0,0,0,0,0,0,0,0,0,0,0,0,0,0,0,0,0,0,0,0,0],"id":13,"left_children":[1,3,5,7,-1,9,11,-1,13,15,-1,17,19,-1,-1,-1,-1,-1,-1,-1,-1],"loss_changes":[3.7905734E0,2.8305638E0,4.3850317E0,2.9609957E0,0E0,3.520145E0,4.9427085E0,0E0,1.7182236E0,2.2975888E0,0E0,6.7579017E0,3.7795074E0,0E0,0E0,0E0,0E0,0E0,0E0,0E0,0E0],"parents":[2147483647,0,0,1,1,2,2,3,3,5,5,6,6,8,8,9,9,11,11,12,12],"right_children":[2,4,6,8,-1,10,12,-1,14,16,-1,18,20,-1,-1,-1,-1,-1,-1,-1,-1],"split_conditions":[3.9549904E0,3.8959043E0,4.0040517E0,-3.4382142E-2,1.1756604E-1,8.941944E-1,4.1449304E0,-6.801864E-2,1.3070466E-1,-9.080649E-3,-1.308164E-1,5.6763668E-2,6.284806E-1,1.03782944E-1,-2.178222E-2,7.186969E-2,-4.7280233E-2,1.275541E-1,-4.417076E-2,-8.809457E-3,1.649252E-3],"split_indices":[2,3,2,0,0,5,2,0,7,7,0,1,5,0,0,0,0,0,0,0,0],"split_type":[0,0,0,0,0,0,0,0,0,0,0,0,0,0,0,0,0,0,0,0,0],"sum_hessian":[2.2391396E3,8.997044E0,2.2301426E3,5.2639556E0,3.7330875E0,8.9898815E0,2.2211528E3,2.0165071E0,3.2474484E0,5.389299E0,3.6005833E0,8.567579E0,2.2125852E3,1.9974784E0,1.2499701E0,1.4105034E0,3.9787953E0,5.7104964E0,2.857083E0,4.273963E2,1.785189E3],"tree_param":{"num_deleted":"0","num_feature":"8","num_nodes":"21","size_leaf_vector":"1"}},{"base_weights":[-7.414876E-4,2.2976404E-1,-7.525795E-3,5.1870996E-1,6.2459987E-2,2.5581656E-2,-6.723459E-2,-3.3479774E-1,7.9356426E-1,-6.0763115E-1,2.1093711E-1,1.673861E-2,5.013433E-1,4.854437E-1,-7.9385765E-2,-6.8006195E-2,6.241053E-2,2.0848393E-2,1.0709075E-1,-1.1359548E-1,1.1853753E-2,9.140822E-3,1.0067635E-1,6.6580825E-2,1.1607416E-3,7.4147254E-2,-4.016341E-2,-9.459682E-2,6.7791246E-2,-1.2430041E-2,7.921281E-3],"categories":[],"categories_nodes":[],"categories_segments":[],"categories_sizes":[],"default_left":[0,0,0,0,0,0,0,0,0,0,0,0,0,0,0,0,0,0,0,0,0,0,0,0,0,0,0,0,0,0,0],"id":14,"left_children":[1,3,5,7,9,11,13,15,17,19,21,23,25,27,29,-1,-1,-1,-1,-1,-1,-1,-1,-1,-1,-1,-1,-1,-1,-1,-1],"loss_changes":[3.5043101E0,3.0647762E0,4.3046155E0,5.744898E0,4.278203E0,5.8858366E0,5.2546062E0,2.5408711E0,2.6917E0,3.136203E0,3.2266753E0,4.576581E0,5.8336544E0,5.283402E0,5.4296775E0,0E0,0E0,0E0,0E0,0E0,0E0,0E0,0E0,0E0,0E0,0E0,0E0,0E0,0E0,0E0,0E0],"parents":[2147483647,0,0,1,1,2,2,3,3,4,4,5,5,6,6,7,7,8,8,9,9,10,10,11,11,12,12,13,13,14,14],"right_children":[2,4,6,8,10,12,14,16,18,20,22,24,26,28,30,-1,-1,-1,-1,-1,-1,-1,-1,-1,-1,-1,-1,-1,-1,-1,-1],"split_conditions":[-2.0262632E0,3.073086E1,8.331618E1,-5.252849E-1,-1.3747904E0,8.225588E1,-5.9723854E-1,1.8663775E0,7.8899723E-1,8.829857E-1,3.933075E2,-1.178408E0,2.4201912E-1,8.56647E1,7.563235E-1,-6.8006195E-2,6.241053E-2,2.0848393E-2,1.0709075E-1,-1.1359548E-1,1.1853753E-2,9.140822E-3,1.0067635E-1,6.6580825E-2,1.1607416E-3,7.4147254E-2,-4.016341E-2,-9.459682E-2,6.7791246E-2,-1.2430041E-2,7.921281E-3],"split_indices":[0,6,3,7,1,3,7,5,5,5,2,0,7,3,0,0,0,0,0,0,0,0,0,0,0,0,0,0,0,0,0],"split_type":[0,0,0,0,0,0,0,0,0,0,0,0,0,0,0,0,0,0,0,0,0,0,0,0,0,0,0,0,0,0,0],"sum_hessian":[2.238759E3,6.3068233E1,2.1756907E3,2.2356527E1,4.0711704E1,1.399992E3,7.756988E2,5.392635E0,1.6963892E1,6.8236256E0,3.388808E1,1.3754613E3,2.4530699E1,1.5849667E1,7.598491E2,4.1788006E0,1.213834E0,6.0186763E0,1.0945216E1,3.6232321E0,3.2003932E0,3.0432186E1,3.4558933E0,9.778471E0,1.3656829E3,1.951889E1,5.0118093E0,1.4145535E0,1.4435113E1,5.9232166E2,1.6752747E2],"tree_param":{"num_deleted":"0","num_feature":"8","num_nodes":"31","size_leaf_vector":"1"}},{"base_weights":[-5.9399346E-4,-2.8598395E-1,4.5404183E-3,-4.212548E-1,3.8085952E-1,4.964585E-1,5.1042414E-4,4.642754E-1,-5.5902225E-1,7.470311E-1,-2.5774822E-1,1.2714025E0,-9.690596E-2,4.694725E-2,-3.2900803E-2,-9.083449E-2,1.231452E-1,-8.226382E-2,-8.221064E-3,9.687553E-3,1.0586394E-1,-8.531663E-2,4.4374254E-2,1.4258504E-1,3.2707736E-2,-1.0881535E-1,6.658157E-2,2.6482223E-3,5.067281E-2,-6.366423E-3,5.5049094E-3],"categories":[],"categories_nodes":[],"categories_segments":[],"categories_sizes":[],"default_left":[0,0,0,0,0,0,0,0,0,0,0,0,0,0,0,0,0,0,0,0,0,0,0,0,0,0,0,0,0,0,0],"id":15,"left_children":[1,3,5,7,9,11,13,15,17,19,21,23,25,27,29,-1,-1,-1,-1,-1,-1,-1,-1,-1,-1,-1,-1,-1,-1,-1,-1],"loss_changes":[3.2818885E0,3.73095E0,4.361592E0,4.332044E0,1.8763039E0,8.343891E0,3.389079E0,6.426478E0,3.6204424E0,8.7656474E-1,1.785143E0,6.7469215E-1,9.082109E0,8.5869255E0,3.440651E0,0E0,0E0,0E0,0E0,0E0,0E0,0E0,0E0,0E0,0E0,0E0,0E0,0E0,0E0,0E0,0E0],"parents":[2147483647,0,0,1,1,2,2,3,3,4,4,5,5,6,6,7,7,8,8,9,9,10,10,11,11,12,12,13,13,14,14],"right_children":[2,4,6,8,10,12,14,16,18,20,22,24,26,28,30,-1,-1,-1,-1,-1,-1,-1,-1,-1,-1,-1,-1,-1,-1,-1,-1],"split_conditions":[2.5360304E-1,4.1391724E-1,3.4103182E-1,-5.378544E-1,8.656371E-1,4.0993797E1,4.6901978E1,-4.2058733E-1,4.1574758E-2,8.260294E1,2.481888E-1,-5.7066426E-2,4.9798656E1,3.6293334E-1,1.6403791E0,-9.083449E-2,1.231452E-1,-8.226382E-2,-8.221064E-3,9.687553E-3,1.0586394E-1,-8.531663E-2,4.4374254E-2,1.4258504E-1,3.2707736E-2,-1.0881535E-1,6.658157E-2,2.6482223E-3,5.067281E-2,-6.366423E-3,5.5049094E-3],"split_indices":[5,0,5,7,1,6,4,0,7,3,7,0,6,0,1,0,0,0,0,0,0,0,0,0,0,0,0,0,0,0,0],"split_type":[0,0,0,0,0,0,0,0,0,0,0,0,0,0,0,0,0,0,0,0,0,0,0,0,0,0,0,0,0,0,0],"sum_hessian":[2.2378374E3,3.8582405E1,2.1992551E3,3.2381935E1,6.200471E0,1.687789E1,2.1823772E3,4.040534E0,2.8341402E1,3.8329268E0,2.3675442E0,6.823536E0,1.0054354E1,9.130137E2,1.2693635E3,1.3826708E0,2.6578631E0,1.7783892E1,1.055751E1,1.6665791E0,2.1663477E0,1.1636399E0,1.2039043E0,5.426153E0,1.3973827E0,4.186642E0,5.8677115E0,8.751194E2,3.7894306E1,9.4062463E2,3.287389E2],"tree_param":{"num_deleted":"0","num_feature":"8","num_nodes":"31","size_leaf_vector":"1"}},{"base_weights":[-4.717204E-4,3.691867E-3,-3.4643188E-1,3.152993E-1,-1.1640707E-3,1.3342895E-1,-5.9572756E-1,-6.3410646E-1,5.201029E-1,5.647775E-1,-3.7561704E-3,-2.8449315E-1,7.346888E-1,-3.480598E-1,-9.0134376E-1,2.9219294E-2,-1.085493E-1,6.3797586E-2,-5.5159707E-2,8.110417E-3,1.08223654E-1,-6.2199246E-2,-9.3168426E-5,5.8419596E-2,-6.807683E-2,9.768235E-2,4.1163927E-3,-7.261432E-2,1.8520353E-2,9.136671E-3,-1.2436302E-1],"categories":[],"categories_nodes":[],"categories_segments":[],"categories_sizes":[],"default_left":[0,0,0,0,0,0,0,0,0,0,0,0,0,0,0,0,0,0,0,0,0,0,0,0,0,0,0,0,0,0,0],"id":16,"left_children":[1,3,5,7,9,11,13,15,17,19,21,23,25,27,29,-1,-1,-1,-1,-1,-1,-1,-1,-1,-1,-1,-1,-1,-1,-1,-1],"loss_changes":[3.2253003E0,3.3483543E0,3.2648017E0,6.9320054E0,3.1996107E0,2.7018788E0,1.0264931E0,3.024726E0,3.9495134E0,2.4010727E0,3.7898986E0,2.6605625E0,6.8979526E-1,2.4348416E0,2.5930305E0,0E0,0E0,0E0,0E0,0E0,0E0,0E0,0E0,0E0,0E0,0E0,0E0,0E0,0E0,0E0,0E0],"parents":[2147483647,0,0,1,1,2,2,3,3,4,4,5,5,6,6,7,7,8,8,9,9,10,10,11,11,12,12,13,13,14,14],"right_children":[2,4,6,8,10,12,14,16,18,20,22,24,26,28,30,-1,-1,-1,-1,-1,-1,-1,-1,-1,-1,-1,-1,-1,-1,-1,-1],"split_conditions":[4.1823975E2,-5.415248E0,-1.2383449E0,8.713269E1,3.9549904E0,9.2789173E-1,1.046592E0,-5.9723854E-1,3.9712914E1,3.8959043E0,4.0040517E0,5.590408E-1,5.942324E-1,9.31384E-2,-2.8252532E0,2.9219294E-2,-1.085493E-1,6.3797586E-2,-5.5159707E-2,8.110417E-3,1.08223654E-1,-6.2199246E-2,-9.3168426E-5,5.8419596E-2,-6.807683E-2,9.768235E-2,4.1163927E-3,-7.261432E-2,1.8520353E-2,9.136671E-3,-1.2436302E-1],"split_indices":[3,1,0,2,2,5,5,7,6,3,2,5,1,7,1,0,0,0,0,0,0,0,0,0,0,0,0,0,0,0,0],"split_type":[0,0,0,0,0,0,0,0,0,0,0,0,0,0,0,0,0,0,0,0,0,0,0,0,0,0,0,0,0,0,0],"sum_hessian":[2.237227E3,2.2116E3,2.5627E1,3.2954678E1,2.1786453E3,8.920673E0,1.6706327E1,5.475553E0,2.7479126E1,8.944204E0,2.1697012E3,5.573499E0,3.3471744E0,1.0409484E1,6.2968435E0,1.9095676E0,3.5659854E0,2.5120867E1,2.3582582E0,5.2209105E0,3.7232935E0,8.870505E0,2.1608306E3,1.5974509E0,3.9760485E0,2.1781967E0,1.1689779E0,5.879339E0,4.530145E0,1.8024338E0,4.4944096E0],"tree_param":{"num_deleted":"0","num_feature":"8","num_nodes":"31","size_leaf_vector":"1"}},{"base_weights":[-4.830614E-4,-4.553568E-3,3.2124537E-1,-7.856586E-3,4.2520922E-1,5.1067734E-1,-4.4837466E-1,2.2998912E-2,-5.1112503E-2,9.8220295E-1,9.959215E-2,-1.0073629E-1,7.115261E-1,-8.071445E-1,2.093077E-2,7.495072E-2,1.655425E-3,-1.8679589E-2,4.560811E-4,4.3293748E-2,1.5180396E-1,-4.1135736E-2,6.641899E-2,4.3619696E-2,-7.1491174E-2,8.292324E-2,-1.4417204E-2,-3.2660678E-2,-1.0046562E-1],"categories":[],"categories_nodes":[],"categories_segments":[],"categories_sizes":[],"default_left":[0,0,0,0,0,0,0,0,0,0,0,0,0,0,0,0,0,0,0,0,0,0,0,0,0,0,0,0,0],"id":17,"left_children":[1,3,5,7,9,11,13,15,17,19,21,23,25,27,-1,-1,-1,-1,-1,-1,-1,-1,-1,-1,-1,-1,-1,-1,-1],"loss_changes":[2.9320931E0,3.141654E0,4.307175E0,2.930746E0,2.9637074E0,2.8857117E0,1.5982974E0,5.989106E0,6.906341E0,1.1424499E0,3.667367E0,2.469292E0,1.869381E0,6.3429594E-2,0E0,0E0,0E0,0E0,0E0,0E0,0E0,0E0,0E0,0E0,0E0,0E0,0E0,0E0,0E0],"parents":[2147483647,0,0,1,1,2,2,3,3,4,4,5,5,6,6,7,7,8,8,9,9,10,10,11,11,12,12,13,13],"right_children":[2,4,6,8,10,12,14,16,18,20,22,24,26,28,-1,-1,-1,-1,-1,-1,-1,-1,-1,-1,-1,-1,-1,-1,-1],"split_conditions":[2.8939092E0,9.033413E1,3.2247624E-1,-1.0508107E-3,3.816875E1,-8.732726E-3,8.834264E1,4.1449304E0,3.9547327E-1,3.5890454E-1,1.9393735E0,-2.6636317E-1,1.2379341E0,8.190178E1,2.093077E-2,7.495072E-2,1.655425E-3,-1.8679589E-2,4.560811E-4,4.3293748E-2,1.5180396E-1,-4.1135736E-2,6.641899E-2,4.3619696E-2,-7.1491174E-2,8.292324E-2,-1.4417204E-2,-3.2660678E-2,-1.0046562E-1],"split_indices":[5,6,7,7,2,0,3,2,1,7,5,0,0,6,0,0,0,0,0,0,0,0,0,0,0,0,0,0,0],"split_type":[0,0,0,0,0,0,0,0,0,0,0,0,0,0,0,0,0,0,0,0,0,0,0,0,0,0,0,0,0],"sum_hessian":[2.2368093E3,2.2098364E3,2.6972992E1,2.193956E3,1.5880319E1,2.1915285E1,5.0577073E0,1.2807992E3,9.1315686E2,5.114731E0,1.0765588E1,5.542261E0,1.6373024E1,3.1254816E0,1.9322257E0,1.0247939E1,1.2705513E3,2.6498862E2,6.481683E2,3.4185114E0,1.6962197E0,5.7937636E0,4.9718237E0,3.111695E0,2.430566E0,1.4420349E1,1.9526746E0,1.6834133E0,1.4420682E0],"tree_param":{"num_deleted":"0","num_feature":"8","num_nodes":"29","size_leaf_vector":"1"}},{"base_weights":[-3.4989006E-4,1.4571531E-1,-9.040151E-3,1.11468874E-1,9.334561E-2,2.7159124E-3,-1.8292473E-1,3.366048E-2,5.2869576E-1,-1.268347E-2,1.0700049E-1,-3.5830957E-1,1.7607592E-1,1.2058015E-2,-3.9274227E-2,1.0656998E-1,3.5137278E-3,-2.1692466E-3,3.332648E-2,5.9990365E-2,5.384117E-3,-2.2839488E-2,-7.549185E-2,4.1432712E-2,-2.8121436E-2],"categories":[],"categories_nodes":[],"categories_segments":[],"categories_sizes":[],"default_left":[0,0,0,0,0,0,0,0,0,0,0,0,0,0,0,0,0,0,0,0,0,0,0,0,0],"id":18,"left_children":[1,3,5,-1,7,9,11,13,15,17,19,21,23,-1,-1,-1,-1,-1,-1,-1,-1,-1,-1,-1,-1],"loss_changes":[2.8410769E0,6.2739224E0,4.318862E0,0E0,3.1089506E0,3.1806023E0,8.487123E0,4.009128E0,3.7898655E0,5.386177E0,6.644829E0,4.475765E0,4.973633E0,0E0,0E0,0E0,0E0,0E0,0E0,0E0,0E0,0E0,0E0,0E0,0E0],"parents":[2147483647,0,0,1,1,2,2,4,4,5,5,6,6,7,7,8,8,9,9,10,10,11,11,12,12],"right_children":[2,4,6,-1,8,10,12,14,16,18,20,22,24,-1,-1,-1,-1,-1,-1,-1,-1,-1,-1,-1,-1],"split_conditions":[-1.4135749E0,7.8554855E1,1.5957353E2,1.11468874E-1,3.1972888E2,5.3991127E-1,5.984848E1,2.3272519E2,4.1823975E2,1.4013312E2,4.967141E1,2.3534384E-1,8.983649E0,1.2058015E-2,-3.9274227E-2,1.0656998E-1,3.5137278E-3,-2.1692466E-3,3.332648E-2,5.9990365E-2,5.384117E-3,-2.2839488E-2,-7.549185E-2,4.1432712E-2,-2.8121436E-2],"split_indices":[0,4,3,0,4,0,6,3,3,3,2,0,1,0,0,0,0,0,0,0,0,0,0,0,0],"split_type":[0,0,0,0,0,0,0,0,0,0,0,0,0,0,0,0,0,0,0,0,0,0,0,0,0],"sum_hessian":[2.2361855E3,1.246871E2,2.1114985E3,5.353252E0,1.19333855E2,1.9787057E3,1.327928E2,1.0589351E2,1.3440346E1,1.7248768E3,2.5382886E2,8.921162E1,4.358119E1,8.855858E1,1.7334925E1,5.8816967E0,7.5586495E0,1.6820121E3,4.2864746E1,2.3709057E1,2.301198E2,6.8386536E1,2.0825077E1,2.871463E1,1.4866557E1],"tree_param":{"num_deleted":"0","num_feature":"8","num_nodes":"25","size_leaf_vector":"1"}},{"base_weights":[-2.3890362E-4,3.8567707E-1,-3.5361552E-3,1.1911358E-1,1.0544082E-1,-2.3062334E-5,-4.4504723E-1,-2.0002444E-1,9.5234895E-1,-2.762228E-1,4.828642E-3,-1.5410542E-1,-1.1066847E-1,2.978765E-3,-1.0210347E-1,3.4126654E-2,1.2392449E-1,-4.0932905E-2,3.4746792E-2,4.7733687E-2,1.1250874E-4,-3.568418E-2,4.9272016E-2],"categories":[],"categories_nodes":[],"categories_segments":[],"categories_sizes":[],"default_left":[0,0,0,0,0,0,0,0,0,0,0,0,0,0,0,0,0,0,0,0,0,0,0],"id":19,"left_children":[1,3,5,-1,7,9,11,13,15,17,19,21,-1,-1,-1,-1,-1,-1,-1,-1,-1,-1,-1],"loss_changes":[2.8467083E0,4.152303E0,3.4404812E0,0E0,4.1117625E0,2.9516068E0,3.2001538E0,2.288151E0,3.1192088E-1,3.2988105E0,3.78744E0,1.923067E0,0E0,0E0,0E0,0E0,0E0,0E0,0E0,0E0,0E0,0E0,0E0],"parents":[2147483647,0,0,1,1,2,2,4,4,5,5,6,6,7,7,8,8,9,9,10,10,11,11],"right_children":[2,4,6,-1,8,10,12,14,16,18,20,22,-1,-1,-1,-1,-1,-1,-1,-1,-1,-1,-1],"split_conditions":[-3.0401628E0,-2.60857E-1,4.2818243E2,1.1911358E-1,-2.5738116E-2,2.5360304E-1,7.8298354E-1,3.072236E2,6.2875295E0,4.1391724E-1,3.4103182E-1,6.043956E1,-1.1066847E-1,2.978765E-3,-1.0210347E-1,3.4126654E-2,1.2392449E-1,-4.0932905E-2,3.4746792E-2,4.7733687E-2,1.1250874E-4,-3.568418E-2,4.9272016E-2],"split_indices":[0,7,4,0,7,5,0,3,1,0,5,6,0,0,0,0,0,0,0,0,0,0,0],"split_type":[0,0,0,0,0,0,0,0,0,0,0,0,0,0,0,0,0,0,0,0,0,0,0],"sum_hessian":[2.2350938E3,1.7952335E1,2.2171414E3,3.7948005E0,1.4157536E1,2.200631E3,1.6510315E1,1.0966078E1,3.1914585E0,3.7023262E1,2.163608E3,1.2323999E1,4.1863165E0,9.320781E0,1.6452966E0,1.7191714E0,1.4722869E0,3.079482E1,6.228442E0,1.58320465E1,2.147776E3,9.724379E0,2.5996213E0],"tree_param":{"num_deleted":"0","num_feature":"8","num_nodes":"23","size_leaf_vector":"1"}},{"base_weights":[-1.6875776E-4,3.9012834E-2,-2.908265E-2,9.5951194E-1,3.167088E-2,1.2900363E-1,-4.6112515E-2,1.3028458E0,-4.565028E-2,-8.298876E-2,7.746673E-2,1.04353E-1,8.059805E-2,8.61838E-2,-7.2691776E-2,1.5560536E-1,2.6235227E-2,-1.4666537E-2,7.329139E-2,2.5950784E-2,9.6624234E-4,2.6341032E-3,4.775769E-2,-8.70126E-3,2.9910464E-2,-1.2100722E-2,4.7148312E-3],"categories":[],"categories_nodes":[],"categories_segments":[],"categories_sizes":[],"default_left":[0,0,0,0,0,0,0,0,0,0,0,0,0,0,0,0,0,0,0,0,0,0,0,0,0,0,0],"id":20,"left_children":[1,3,5,7,9,11,13,15,-1,17,19,-1,21,23,25,-1,-1,-1,-1,-1,-1,-1,-1,-1,-1,-1,-1],"loss_changes":[2.533889E0,6.3879547E0,3.4706593E0,4.2316704E0,4.9592304E0,5.4679136E0,4.0941195E0,1.2464123E0,0E0,1.4118914E1,8.323372E0,0E0,2.5763288E0,7.215019E0,5.6139493E0,0E0,0E0,0E0,0E0,0E0,0E0,0E0,0E0,0E0,0E0,0E0,0E0],"parents":[2147483647,0,0,1,1,2,2,3,3,4,4,5,5,6,6,7,7,9,9,10,10,12,12,13,13,14,14],"right_children":[2,4,6,8,10,12,14,16,-1,18,20,-1,22,24,26,-1,-1,-1,-1,-1,-1,-1,-1,-1,-1,-1,-1],"split_conditions":[4.7280212E1,-7.520287E-1,-1.4135749E0,-8.6468376E-2,4.309623E1,7.8554855E1,-4.6415395E-1,4.6901978E1,-4.565028E-2,1.9794124E-1,2.9416868E-2,1.04353E-1,3.1972888E2,9.741218E1,1.6403791E0,1.5560536E-1,2.6235227E-2,-1.4666537E-2,7.329139E-2,2.5950784E-2,9.6624234E-4,2.6341032E-3,4.775769E-2,-8.70126E-3,2.9910464E-2,-1.2100722E-2,4.7148312E-3],"split_indices":[3,0,0,7,6,4,7,4,0,1,1,0,4,2,1,0,0,0,0,0,0,0,0,0,0,0,0],"split_type":[0,0,0,0,0,0,0,0,0,0,0,0,0,0,0,0,0,0,0,0,0,0,0,0,0,0,0],"sum_hessian":[2.2346533E3,9.4870355E2,1.2859497E3,6.4808145E0,9.422227E2,1.2441788E2,1.1615319E3,5.280419E0,1.2003956E0,2.6868942E2,6.735333E2,5.220924E0,1.1919695E2,1.9394455E2,9.6758734E2,3.848401E0,1.4320178E0,2.4999869E2,1.8690746E1,1.8201956E2,4.9151373E2,1.05802734E2,1.3394218E1,1.0727504E2,8.66695E1,6.8956744E2,2.7801987E2],"tree_param":{"num_deleted":"0","num_feature":"8","num_nodes":"27","size_leaf_vector":"1"}},{"base_weights":[-1.8970721E-6,3.6809137E-3,-3.115814E-1,-6.691455E-2,2.0593833E-2,9.633572E-2,-5.297555E-1,-4.102523E-1,-3.559444E-2,1.4054929E-1,4.373882E-3,-2.9058772E-1,6.573592E-1,-5.9238297E-1,2.131798E-2,1.4082833E-2,-6.37601E-2,1.7599456E-3,-3.055708E-2,6.855644E-3,4.347625E-2,4.571561E-2,-3.3103095E-4,5.166309E-2,-6.623937E-2,8.754406E-2,3.2983813E-3,-3.0022714E-2,-1.0438265E-1],"categories":[],"categories_nodes":[],"categories_segments":[],"categories_sizes":[],"default_left":[0,0,0,0,0,0,0,0,0,0,0,0,0,0,0,0,0,0,0,0,0,0,0,0,0,0,0,0,0],"id":21,"left_children":[1,3,5,7,9,11,13,15,17,19,21,23,25,27,-1,-1,-1,-1,-1,-1,-1,-1,-1,-1,-1,-1,-1,-1,-1],"loss_changes":[2.5655797E0,2.63971E0,2.3754804E0,4.580413E0,3.469285E0,2.3503704E0,9.252057E-1,4.553356E0,5.6447296E0,4.4688654E0,5.4709373E0,2.3172777E0,5.657346E-1,1.8101296E0,0E0,0E0,0E0,0E0,0E0,0E0,0E0,0E0,0E0,0E0,0E0,0E0,0E0,0E0,0E0],"parents":[2147483647,0,0,1,1,2,2,3,3,4,4,5,5,6,6,7,7,8,8,9,9,10,10,11,11,12,12,13,13],"right_children":[2,4,6,8,10,12,14,16,18,20,22,24,26,28,-1,-1,-1,-1,-1,-1,-1,-1,-1,-1,-1,-1,-1,-1,-1],"split_conditions":[4.1823975E2,6.284806E-1,-1.2383449E0,-4.9054897E-1,7.179673E-1,9.2789173E-1,1.4942073E0,4.4314766E-1,2.0251314E-1,1.1780691E0,-5.415248E0,5.590408E-1,5.942324E-1,1.046592E0,2.131798E-2,1.4082833E-2,-6.37601E-2,1.7599456E-3,-3.055708E-2,6.855644E-3,4.347625E-2,4.571561E-2,-3.3103095E-4,5.166309E-2,-6.623937E-2,8.754406E-2,3.2983813E-3,-3.0022714E-2,-1.0438265E-1],"split_indices":[3,5,0,7,5,5,5,5,7,1,1,5,1,5,0,0,0,0,0,0,0,0,0,0,0,0,0,0,0],"split_type":[0,0,0,0,0,0,0,0,0,0,0,0,0,0,0,0,0,0,0,0,0,0,0,0,0,0,0,0,0],"sum_hessian":[2.233822E3,2.2087039E3,2.5118275E1,4.2630917E2,1.7823947E3,8.947569E0,1.6170706E1,3.462657E1,3.9168262E2,2.1138931E2,1.5710054E3,5.5807257E0,3.3668432E0,1.5100424E1,1.0702813E0,1.0224212E1,2.4402359E1,3.279925E2,6.369011E1,1.7082268E2,4.0566635E1,2.5240568E1,1.5457648E3,1.63705E0,3.9436758E0,2.1972742E0,1.1695688E0,1.017841E1,4.922014E0],"tree_param":{"num_deleted":"0","num_feature":"8","num_nodes":"29","size_leaf_vector":"1"}},{"base_weights":[-3.171104E-5,4.8982286E-1,-2.2174022E-3,5.2957885E-2,9.705419E-1,-5.822228E-1,3.3115238E-4,-6.785239E-2,5.5989593E-1,3.0216862E-2,1.1874228E-1,-5.3457845E-2,-1.2026643E-1,6.3010716E-1,-2.432211E-3,9.466191E-2,-2.0398375E-2,5.4767318E-2,-4.807835E-2,-5.2810427E-2,1.0718019E-1,-3.0335418E-3,3.967356E-3],"categories":[],"categories_nodes":[],"categories_segments":[],"categories_sizes":[],"default_left":[0,0,0,0,0,0,0,0,0,0,0,0,0,0,0,0,0,0,0,0,0,0,0],"id":22,"left_children":[1,3,5,7,9,11,13,-1,15,-1,-1,17,-1,19,21,-1,-1,-1,-1,-1,-1,-1,-1],"loss_changes":[2.3934457E0,2.034026E0,3.2898998E0,2.7012415E0,3.1815815E-1,3.1300237E0,3.8593981E0,0E0,1.447246E0,0E0,0E0,1.8824867E0,0E0,5.522303E0,2.595462E0,0E0,0E0,0E0,0E0,0E0,0E0,0E0,0E0],"parents":[2147483647,0,0,1,1,2,2,3,3,4,4,5,5,6,6,8,8,11,11,13,13,14,14],"right_children":[2,4,6,8,10,12,14,-1,16,-1,-1,18,-1,20,22,-1,-1,-1,-1,-1,-1,-1,-1],"split_conditions":[3.9549904E0,3.8959043E0,4.0040517E0,-3.4382142E-2,8.6376184E-1,8.941944E-1,4.1449304E0,-6.785239E-2,1.3070466E-1,3.0216862E-2,1.1874228E-1,4.659864E1,-1.2026643E-1,3.8959043E0,5.6439392E1,9.466191E-2,-2.0398375E-2,5.4767318E-2,-4.807835E-2,-5.2810427E-2,1.0718019E-1,-3.0335418E-3,3.967356E-3],"split_indices":[2,3,2,0,5,5,2,0,7,0,0,6,0,3,6,0,0,0,0,0,0,0,0],"split_type":[0,0,0,0,0,0,0,0,0,0,0,0,0,0,0,0,0,0,0,0,0,0,0],"sum_hessian":[2.2334487E3,8.930148E0,2.2245186E3,5.2600837E0,3.670064E0,8.736758E0,2.215782E3,2.014624E0,3.2454596E0,1.4854673E0,2.1845965E0,5.3032646E0,3.4334934E0,8.68826E0,2.2070938E3,1.9958243E0,1.2496352E0,2.0864987E0,3.216766E0,2.344606E0,6.343654E0,1.327589E3,8.7950464E2],"tree_param":{"num_deleted":"0","num_feature":"8","num_nodes":"23","size_leaf_vector":"1"}},{"base_weights":[7.825485E-6,3.476757E-1,-2.943622E-3,1.0323976E0,6.5472305E-2,1.0627239E-2,-9.9729545E-2,1.2699541E-1,3.695316E-2,-2.4481246E-1,8.7787664E-1,-6.1610877E-3,1.4735147E-1,-1.7952971E-1,1.0881781E-1,3.5951957E-2,-5.9248693E-2,2.848412E-2,1.1806239E-1,2.9736597E-3,-7.3449807E-3,5.9352856E-2,1.0253254E-2,2.603866E-3,-4.315847E-2,2.0557053E-2,-7.854008E-2],"categories":[],"categories_nodes":[],"categories_segments":[],"categories_sizes":[],"default_left":[0,0,0,0,0,0,0,0,0,0,0,0,0,0,0,0,0,0,0,0,0,0,0,0,0,0,0],"id":23,"left_children":[1,3,5,7,9,11,13,-1,-1,15,17,19,21,23,25,-1,-1,-1,-1,-1,-1,-1,-1,-1,-1,-1,-1],"loss_changes":[2.293383E0,3.5678098E0,2.91195E0,3.8469505E-1,3.8424425E0,4.4643936E0,4.556616E0,0E0,0E0,2.5652635E0,4.1692877E-1,4.1879225E0,4.1925354E0,1.0247433E1,6.7430573E0,0E0,0E0,0E0,0E0,0E0,0E0,0E0,0E0,0E0,0E0,0E0,0E0],"parents":[2147483647,0,0,1,1,2,2,3,3,4,4,5,5,6,6,9,9,10,10,11,11,12,12,13,13,14,14],"right_children":[2,4,6,8,10,12,14,-1,-1,16,18,20,22,24,26,-1,-1,-1,-1,-1,-1,-1,-1,-1,-1,-1,-1],"split_conditions":[-3.0401628E0,-2.532042E-1,1.387625E2,1.7415999E0,-2.5738116E-2,5.3991127E-1,6.1999996E1,1.2699541E-1,3.695316E-2,1.7756E2,1.559647E2,5.9965927E-2,4.188034E1,4.8051945E1,3.6147597E-1,3.5951957E-2,-5.9248693E-2,2.848412E-2,1.1806239E-1,2.9736597E-3,-7.3449807E-3,5.9352856E-2,1.0253254E-2,2.603866E-3,-4.315847E-2,2.0557053E-2,-7.854008E-2],"split_indices":[0,7,2,5,7,0,6,0,0,4,3,7,3,6,7,0,0,0,0,0,0,0,0,0,0,0,0],"split_type":[0,0,0,0,0,0,0,0,0,0,0,0,0,0,0,0,0,0,0,0,0,0,0,0,0,0,0],"sum_hessian":[2.2329998E3,1.7813784E1,2.215186E3,4.423213E0,1.3390572E1,1.9435596E3,2.7162643E2,2.5820205E0,1.8411924E0,1.0195298E1,3.1952732E0,1.7318599E3,2.116996E2,1.9655447E2,7.5071976E1,3.7108989E0,6.4843993E0,1.7358546E0,1.4594185E0,1.1297244E3,6.021356E2,1.8206747E1,1.9349286E2,1.08754395E2,8.780007E1,6.84373E1,6.634672E0],"tree_param":{"num_deleted":"0","num_feature":"8","num_nodes":"27","size_leaf_vector":"1"}},{"base_weights":[1.05203806E-4,2.4358258E-2,-4.0740732E-2,1.5684346E-2,4.7471187E-1,3.2265416E-1,-5.4733854E-2,-6.8797134E-2,4.9584202E-2,7.035035E-1,-3.407118E-1,5.485244E-1,-4.3458527E-1,-5.1762563E-1,-4.1927323E-2,-1.1883502E-2,3.8472325E-2,4.013023E-2,2.2588845E-3,-4.387306E-2,7.9442546E-2,3.8012385E-2,-8.402266E-2,9.7369915E-3,1.1374789E-1,-7.962726E-2,6.7602366E-2,-2.2265328E-2,-1.3052045E-1,1.3320605E-2,-7.593495E-3],"categories":[],"categories_nodes":[],"categories_segments":[],"categories_sizes":[],"default_left":[0,0,0,0,0,0,0,0,0,0,0,0,0,0,0,0,0,0,0,0,0,0,0,0,0,0,0,0,0,0,0],"id":24,"left_children":[1,3,5,7,9,11,13,15,17,19,21,23,25,27,29,-1,-1,-1,-1,-1,-1,-1,-1,-1,-1,-1,-1,-1,-1,-1,-1],"loss_changes":[2.2132518E0,5.468486E0,4.250206E0,3.9451709E0,5.175162E0,5.5418878E0,4.7346373E0,8.9994135E0,9.322396E0,2.527895E0,2.649057E0,6.352833E0,3.6241117E0,4.7069926E0,4.666618E0,0E0,0E0,0E0,0E0,0E0,0E0,0E0,0E0,0E0,0E0,0E0,0E0,0E0,0E0,0E0,0E0],"parents":[2147483647,0,0,1,1,2,2,3,3,4,4,5,5,6,6,7,7,8,8,9,9,10,10,11,11,12,12,13,13,14,14],"right_children":[2,4,6,8,10,12,14,16,18,20,22,24,26,28,30,-1,-1,-1,-1,-1,-1,-1,-1,-1,-1,-1,-1,-1,-1,-1,-1],"split_conditions":[8.331618E1,8.225588E1,2.073178E1,4.2649002E1,2.2330014E-1,-1.695448E0,8.2518906E1,1.9794124E-1,4.5252888E1,7.404375E1,7.688277E-1,-5.378544E-1,1.1595E2,-1.494317E0,-4.5979118E-1,-1.1883502E-2,3.8472325E-2,4.013023E-2,2.2588845E-3,-4.387306E-2,7.9442546E-2,3.8012385E-2,-8.402266E-2,9.7369915E-3,1.1374789E-1,-7.962726E-2,6.7602366E-2,-2.2265328E-2,-1.3052045E-1,1.3320605E-2,-7.593495E-3],"split_indices":[3,3,6,6,7,1,4,1,6,2,5,7,2,1,7,0,0,0,0,0,0,0,0,0,0,0,0,0,0,0,0],"split_type":[0,0,0,0,0,0,0,0,0,0,0,0,0,0,0,0,0,0,0,0,0,0,0,0,0,0,0,0,0,0,0],"sum_hessian":[2.232165E3,1.4008107E3,8.313544E2,1.3753558E3,2.5454838E1,3.0007793E1,8.0134656E2,3.9355414E2,9.8180164E2,1.9984764E1,5.4700727E0,2.3325779E1,6.682013E0,2.0512262E1,7.808343E2,3.5511188E2,3.8442284E1,6.899618E1,9.128055E2,1.1914512E0,1.8793312E1,2.336848E0,3.133225E0,1.3867918E1,9.457861E0,5.253997E0,1.4280162E0,1.5856299E1,4.6559625E0,1.2649418E2,6.5434015E2],"tree_param":{"num_deleted":"0","num_feature":"8","num_nodes":"31","size_leaf_vector":"1"}},{"base_weights":[7.712222E-5,4.6489108E-1,-1.9744853E-3,5.394174E-2,9.159192E-1,-5.422504E-1,3.6387763E-4,-6.404993E-2,5.275226E-1,2.8298466E-2,1.1245906E-1,4.1297816E-2,-8.2031554E-1,5.7424814E-1,-2.167032E-3,1.05803944E-1,-4.7223414E-3,-1.5903352E-3,-1.2106273E-1,1.0259216E-1,-3.987473E-2,-6.8333033E-3,1.3629023E-3],"categories":[],"categories_nodes":[],"categories_segments":[],"categories_sizes":[],"default_left":[0,0,0,0,0,0,0,0,0,0,0,0,0,0,0,0,0,0,0,0,0,0,0],"id":25,"left_children":[1,3,5,7,9,11,13,-1,15,-1,-1,-1,17,19,21,-1,-1,-1,-1,-1,-1,-1,-1],"loss_changes":[2.1300414E0,1.7699132E0,2.8097477E0,2.3764284E0,2.9155397E-1,2.8845134E0,3.2188337E0,0E0,1.3408692E0,0E0,0E0,0E0,2.4166102E0,4.685442E0,2.3071373E0,0E0,0E0,0E0,0E0,0E0,0E0,0E0,0E0],"parents":[2147483647,0,0,1,1,2,2,3,3,4,4,5,5,6,6,8,8,12,12,13,13,14,14],"right_children":[2,4,6,8,10,12,14,-1,16,-1,-1,-1,18,20,22,-1,-1,-1,-1,-1,-1,-1,-1],"split_conditions":[3.9549904E0,3.8959043E0,4.0040517E0,-3.4382142E-2,8.6376184E-1,6.4250076E-1,4.1449304E0,-6.404993E-2,9.45958E-1,2.8298466E-2,1.1245906E-1,4.1297816E-2,4.8444443E1,5.6763668E-2,6.284806E-1,1.05803944E-1,-4.7223414E-3,-1.5903352E-3,-1.2106273E-1,1.0259216E-1,-3.987473E-2,-6.8333033E-3,1.3629023E-3],"split_indices":[2,3,2,0,5,5,2,0,5,0,0,0,6,1,5,0,0,0,0,0,0,0,0],"split_type":[0,0,0,0,0,0,0,0,0,0,0,0,0,0,0,0,0,0,0,0,0,0,0],"sum_hessian":[2.2316848E3,8.815605E0,2.2228694E3,5.198576E0,3.6170285E0,8.584299E0,2.214285E3,1.9648843E0,3.233692E0,1.4810097E0,2.1360188E0,1.8260708E0,6.758229E0,8.730579E0,2.2055544E3,1.2442818E0,1.9894102E0,2.5478952E0,4.2103333E0,5.9255085E0,2.8050709E0,4.244223E2,1.7811321E3],"tree_param":{"num_deleted":"0","num_feature":"8","num_nodes":"23","size_leaf_vector":"1"}},{"base_weights":[1.3166506E-4,3.3030877E-1,-2.6384038E-3,1.0330527E0,9.41689E-2,9.821377E-4,-3.1787366E-1,1.1656127E-1,3.1307895E-2,-1.7604876E-1,8.340409E-1,2.3671244E-3,-7.4257267E-1,-3.969368E-1,5.3053487E-2,3.4669035E-3,-9.462434E-2,2.5666496E-2,1.1380827E-1,-2.0516067E-5,8.7318055E-2,-1.0604545E-1,1.4245107E-3,-6.804811E-2,6.164769E-3],"categories":[],"categories_nodes":[],"categories_segments":[],"categories_sizes":[],"default_left":[0,0,0,0,0,0,0,0,0,0,0,0,0,0,0,0,0,0,0,0,0,0,0,0,0],"id":26,"left_children":[1,3,5,7,9,11,13,-1,-1,15,17,19,21,23,-1,-1,-1,-1,-1,-1,-1,-1,-1,-1,-1],"loss_changes":[2.0424666E0,2.9858987E0,2.5279016E0,7.1483135E-2,3.147088E0,2.2575293E0,1.897568E0,0E0,0E0,1.9507779E0,4.4323778E-1,4.89989E0,9.956262E-1,3.1077347E0,0E0,0E0,0E0,0E0,0E0,0E0,0E0,0E0,0E0,0E0,0E0],"parents":[2147483647,0,0,1,1,2,2,3,3,4,4,5,5,6,6,9,9,10,10,11,11,12,12,13,13],"right_children":[2,4,6,8,10,12,14,-1,-1,16,18,20,22,24,-1,-1,-1,-1,-1,-1,-1,-1,-1,-1,-1],"split_conditions":[-3.0401628E0,-2.60857E-1,4.1823975E2,1.9019548E0,-2.5738116E-2,4.2818243E2,1.4942073E0,1.1656127E-1,3.1307895E-2,3.072236E2,6.2875295E0,4.1038235E2,1.3568777E0,6.3592517E-3,5.3053487E-2,3.4669035E-3,-9.462434E-2,2.5666496E-2,1.1380827E-1,-2.0516067E-5,8.7318055E-2,-1.0604545E-1,1.4245107E-3,-6.804811E-2,6.164769E-3],"split_indices":[0,7,3,5,7,4,5,0,0,3,1,3,5,7,0,0,0,0,0,0,0,0,0,0,0],"split_type":[0,0,0,0,0,0,0,0,0,0,0,0,0,0,0,0,0,0,0,0,0,0,0,0,0],"sum_hessian":[2.2311946E3,1.7579435E1,2.2136152E3,3.5726395E0,1.4006797E1,2.1894656E3,2.4149576E1,2.4944084E0,1.0782311E0,1.0817911E1,3.1888857E0,2.18639E3,3.0756757E0,2.25777E1,1.571875E0,9.243866E0,1.5740453E0,1.7361361E0,1.4527497E0,2.1809473E3,5.442509E0,1.8834002E0,1.1922755E0,1.3652465E1,8.925236E0],"tree_param":{"num_deleted":"0","num_feature":"8","num_nodes":"25","size_leaf_vector":"1"}},{"base_weights":[1.8857142E-4,-3.186346E-3,2.6871428E-1,-6.062604E-3,3.6980033E-1,4.448487E-1,-4.368544E-1,2.1138035E-2,-4.4241175E-2,8.702421E-1,7.464531E-2,2.2786101E-2,7.282211E-1,-7.125609E-1,3.5782106E-2,2.6186094E-2,6.739299E-4,-1.6513715E-2,5.12372E-4,3.6866378E-2,1.3666724E-1,-3.9321136E-2,5.930194E-2,1.1069305E-1,-2.8618693E-2,8.9709E-2,-1.1231052E-2,-3.1924907E-2,-9.7067684E-2],"categories":[],"categories_nodes":[],"categories_segments":[],"categories_sizes":[],"default_left":[0,0,0,0,0,0,0,0,0,0,0,0,0,0,0,0,0,0,0,0,0,0,0,0,0,0,0,0,0],"id":27,"left_children":[1,3,5,7,9,11,13,15,17,19,21,23,25,27,-1,-1,-1,-1,-1,-1,-1,-1,-1,-1,-1,-1,-1,-1,-1],"loss_changes":[2.0234296E0,2.367872E0,3.6384308E0,2.274375E0,2.4298801E0,2.6950908E0,1.5784822E0,4.4316287E0,5.4384584E0,1.033042E0,3.0751119E0,3.713375E0,2.0215993E0,1.7934632E-1,0E0,0E0,0E0,0E0,0E0,0E0,0E0,0E0,0E0,0E0,0E0,0E0,0E0,0E0,0E0],"parents":[2147483647,0,0,1,1,2,2,3,3,4,4,5,5,6,6,7,7,8,8,9,9,10,10,11,11,12,12,13,13],"right_children":[2,4,6,8,10,12,14,16,18,20,22,24,26,28,-1,-1,-1,-1,-1,-1,-1,-1,-1,-1,-1,-1,-1,-1,-1],"split_conditions":[2.8939092E0,9.033413E1,3.2247624E-1,-1.0508107E-3,3.816875E1,-2.8958809E-2,1.1146875E2,6.3773527E0,3.9547327E-1,3.5890454E-1,1.9393735E0,-1.8706052E0,2.6790771E0,8.4380936E1,3.5782106E-2,2.6186094E-2,6.739299E-4,-1.6513715E-2,5.12372E-4,3.6866378E-2,1.3666724E-1,-3.9321136E-2,5.930194E-2,1.1069305E-1,-2.8618693E-2,8.9709E-2,-1.1231052E-2,-3.1924907E-2,-9.7067684E-2],"split_indices":[5,6,7,7,2,7,2,3,1,7,5,1,1,6,0,0,0,0,0,0,0,0,0,0,0,0,0,0,0],"split_type":[0,0,0,0,0,0,0,0,0,0,0,0,0,0,0,0,0,0,0,0,0,0,0,0,0,0,0,0,0],"sum_hessian":[2.2308E3,2.2040864E3,2.6713533E1,2.188196E3,1.5890361E1,2.1672775E1,5.040758E0,1.2780706E3,9.1012555E2,5.172259E0,1.07181015E1,9.139929E0,1.2532846E1,3.8190863E0,1.2216716E0,7.116267E1,1.206908E3,2.6319897E2,6.469266E2,3.4396095E0,1.7326492E0,5.760466E0,4.9576354E0,1.4543167E0,7.685612E0,1.0380117E1,2.1527286E0,2.3995476E0,1.4195387E0],"tree_param":{"num_deleted":"0","num_feature":"8","num_nodes":"29","size_leaf_vector":"1"}},{"base_weights":[2.8760015E-4,-2.2379488E-1,4.2359093E-3,-7.396366E-1,-8.24323E-2,4.0842575E-1,8.6975883E-4,1.5052266E-2,-9.82544E-1,6.195518E-1,-4.1150546E-1,1.0930223E0,-1.238889E-1,4.0476546E-2,-2.7723901E-2,-3.304263E-2,-1.16754554E-1,1.8020006E-1,2.0760436E-2,-7.5251885E-2,2.1126106E-2,4.608269E-2,1.4609776E-1,-1.04805164E-1,5.6577235E-2,-1.3666603E-3,1.6057981E-2,2.266434E-3,-8.90329E-3],"categories":[],"categories_nodes":[],"categories_segments":[],"categories_sizes":[],"default_left":[0,0,0,0,0,0,0,0,0,0,0,0,0,0,0,0,0,0,0,0,0,0,0,0,0,0,0,0,0],"id":28,"left_children":[1,3,5,7,9,11,13,-1,15,17,19,21,23,25,27,-1,-1,-1,-1,-1,-1,-1,-1,-1,-1,-1,-1,-1,-1],"loss_changes":[1.9749191E0,2.7574065E0,2.9839923E0,1.9183645E0,7.5227637E0,6.7367024E0,2.4658446E0,0E0,4.0629625E-1,4.7115345E0,4.8356886E0,1.1936626E0,7.660528E0,5.9383173E0,3.9083426E0,0E0,0E0,0E0,0E0,0E0,0E0,0E0,0E0,0E0,0E0,0E0,0E0,0E0,0E0],"parents":[2147483647,0,0,1,1,2,2,3,3,4,4,5,5,6,6,8,8,9,9,10,10,11,11,12,12,13,13,14,14],"right_children":[2,4,6,8,10,12,14,-1,16,18,20,22,24,26,28,-1,-1,-1,-1,-1,-1,-1,-1,-1,-1,-1,-1,-1,-1],"split_conditions":[2.5360304E-1,3.4763947E1,3.4103182E-1,9.042598E0,4.5252888E1,4.0993797E1,4.6901978E1,1.5052266E-2,-5.378544E-1,1.198625E1,7.232794E1,3.743464E1,4.9798656E1,2.535E1,9.6192616E-1,-3.304263E-2,-1.16754554E-1,1.8020006E-1,2.0760436E-2,-7.5251885E-2,2.1126106E-2,4.608269E-2,1.4609776E-1,-1.04805164E-1,5.6577235E-2,-1.3666603E-3,1.6057981E-2,2.266434E-3,-8.90329E-3],"split_indices":[5,6,5,3,6,6,4,0,7,2,3,2,6,2,5,0,0,0,0,0,0,0,0,0,0,0,0,0,0],"split_type":[0,0,0,0,0,0,0,0,0,0,0,0,0,0,0,0,0,0,0,0,0,0,0,0,0,0,0,0,0],"sum_hessian":[2.2301138E3,3.764988E1,2.192464E3,7.1880393E0,3.0461842E1,1.7114468E1,2.1753496E3,1.6225106E0,5.565529E0,9.4405E0,2.1021341E1,7.025635E0,1.0088833E1,9.118609E2,1.2634886E3,1.8456861E0,3.719843E0,1.5673249E0,7.873175E0,1.34487505E1,7.5725904E0,3.4133866E0,3.6122482E0,4.0893474E0,5.999485E0,6.291315E2,2.8272943E2,6.938566E2,5.69632E2],"tree_param":{"num_deleted":"0","num_feature":"8","num_nodes":"29","size_leaf_vector":"1"}},{"base_weights":[3.0755394E-4,-3.40743E-2,2.7967129E-2,-2.213752E-2,-6.427317E-1,2.0886652E-1,-1.7900487E-2,1.0824311E0,-2.7806435E-2,-5.3516116E-2,-1.0875131E0,5.1940256E-1,1.0570207E-1,8.946811E-2,-7.685601E-2,-6.3932525E-6,1.4216463E-1,-8.33004E-3,7.127402E-3,-5.370918E-2,1.04677655E-1,-4.6549864E-2,-1.2709594E-1,4.196629E-2,1.5153363E-1,9.225338E-2,6.6031353E-3,-2.8305773E-2,1.2988198E-2,-7.0840016E-2,-5.191264E-3],"categories":[],"categories_nodes":[],"categories_segments":[],"categories_sizes":[],"default_left":[0,0,0,0,0,0,0,0,0,0,0,0,0,0,0,0,0,0,0,0,0,0,0,0,0,0,0,0,0,0,0],"id":29,"left_children":[1,3,5,7,9,11,13,15,17,19,21,23,25,27,29,-1,-1,-1,-1,-1,-1,-1,-1,-1,-1,-1,-1,-1,-1,-1,-1],"loss_changes":[2.1223834E0,7.21471E0,1.0265873E1,6.147022E0,4.9479575E0,7.961875E0,6.258008E0,1.8408675E0,5.3551073E0,5.4938626E0,6.445389E-1,5.53738E0,6.066531E0,5.3137503E0,1.0014105E1,0E0,0E0,0E0,0E0,0E0,0E0,0E0,0E0,0E0,0E0,0E0,0E0,0E0,0E0,0E0,0E0],"parents":[2147483647,0,0,1,1,2,2,3,3,4,4,5,5,6,6,7,7,8,8,9,9,10,10,11,11,12,12,13,13,14,14],"right_children":[2,4,6,8,10,12,14,16,18,20,22,24,26,28,30,-1,-1,-1,-1,-1,-1,-1,-1,-1,-1,-1,-1,-1,-1,-1,-1],"split_conditions":[8.5715574E-1,8.512828E-1,9.6192616E-1,1.437907E1,5.85E1,-6.6259587E-1,3.4507355E1,-5.9723854E-1,5.5113632E1,6.716848E-2,-4.2058733E-1,9.546192E-1,-1.178408E0,2.5769243E1,3.9073334E1,-6.3932525E-6,1.4216463E-1,-8.33004E-3,7.127402E-3,-5.370918E-2,1.04677655E-1,-4.6549864E-2,-1.2709594E-1,4.196629E-2,1.5153363E-1,9.225338E-2,6.6031353E-3,-2.8305773E-2,1.2988198E-2,-7.0840016E-2,-5.191264E-3],"split_indices":[5,5,5,6,2,1,3,7,6,0,0,5,0,6,4,0,0,0,0,0,0,0,0,0,0,0,0,0,0,0,0],"split_type":[0,0,0,0,0,0,0,0,0,0,0,0,0,0,0,0,0,0,0,0,0,0,0,0,0,0,0,0,0,0,0],"sum_hessian":[2.2297659E3,9.939804E2,1.2357855E3,9.7587823E2,1.8102211E1,2.4924057E2,9.865449E2,4.013023E0,9.718652E2,8.268712E0,9.833499E0,6.114696E1,1.8809361E2,3.495089E2,6.37036E2,1.1960456E0,2.8169773E0,6.230567E2,3.488085E2,6.099752E0,2.1689599E0,3.0452929E0,6.7882066E0,5.6872715E1,4.274247E0,7.681177E0,1.8041243E2,3.361838E1,3.1589053E2,2.316323E1,6.138728E2],"tree_param":{"num_deleted":"0","num_feature":"8","num_nodes":"31","size_leaf_vector":"1"}},{"base_weights":[3.4006068E-4,-9.313578E-3,8.869919E-2,-3.8159352E-3,-2.967824E-1,3.4631935E-1,2.4858525E-2,3.0257717E-1,-8.531816E-3,-3.5947934E-1,8.735478E-2,-2.7689767E-1,6.243976E-1,-5.7661283E-1,7.209187E-2,4.265047E-2,-1.0275551E-1,5.282102E-4,-1.0794315E-2,2.845169E-2,-4.5910534E-2,8.6368084E-2,-5.8414716E-2,-5.3102784E-3,7.31698E-2,6.314126E-2,-7.817993E-2,1.3253441E-1,3.1667785E-3],"categories":[],"categories_nodes":[],"categories_segments":[],"categories_sizes":[],"default_left":[0,0,0,0,0,0,0,0,0,0,0,0,0,0,0,0,0,0,0,0,0,0,0,0,0,0,0,0,0],"id":30,"left_children":[1,3,5,7,9,11,13,15,17,19,-1,21,23,25,27,-1,-1,-1,-1,-1,-1,-1,-1,-1,-1,-1,-1,-1,-1],"loss_changes":[1.9032266E0,3.1778705E0,3.605764E0,2.8559723E0,3.0827935E0,7.723142E0,5.075644E0,5.3771534E0,2.6726885E0,2.4739408E0,0E0,5.4578404E0,2.2511578E0,3.7192125E0,8.326497E0,0E0,0E0,0E0,0E0,0E0,0E0,0E0,0E0,0E0,0E0,0E0,0E0,0E0,0E0],"parents":[2147483647,0,0,1,1,2,2,3,3,4,4,5,5,6,6,7,7,8,8,9,9,11,11,12,12,13,13,14,14],"right_children":[2,4,6,8,10,12,14,16,18,20,-1,22,24,26,28,-1,-1,-1,-1,-1,-1,-1,-1,-1,-1,-1,-1,-1,-1],"split_conditions":[1.6710898E0,3.6763218E-1,1.42813015E1,1.7041794E1,1.5664287E0,-2.1250652E-2,1.8036602E1,-5.2525356E-2,1.292164E0,2.4716353E-2,8.735478E-2,1.783279E0,4.1737294E0,-2.2855988E-1,2.1169933E1,4.265047E-2,-1.0275551E-1,5.282102E-4,-1.0794315E-2,2.845169E-2,-4.5910534E-2,8.6368084E-2,-5.8414716E-2,-5.3102784E-3,7.31698E-2,6.314126E-2,-7.817993E-2,1.3253441E-1,3.1667785E-3],"split_indices":[5,7,4,6,5,1,2,1,5,0,0,5,3,1,4,0,0,0,0,0,0,0,0,0,0,0,0,0,0],"split_type":[0,0,0,0,0,0,0,0,0,0,0,0,0,0,0,0,0,0,0,0,0,0,0,0,0,0,0,0,0],"sum_hessian":[2.2292805E3,2.010517E3,2.1876357E2,1.9737831E3,3.673396E1,4.256672E1,1.7619685E2,2.8961763E1,1.9448213E3,3.5523724E1,1.2102373E0,1.3134496E1,2.9432222E1,1.201315E1,1.641837E2,2.7114843E1,1.8469194E0,1.708377E3,2.3644437E2,4.510618E0,3.1013105E1,2.4030035E0,1.0731492E1,4.0931244E0,2.5339098E1,1.442607E0,1.0570543E1,4.1370907E0,1.6004662E2],"tree_param":{"num_deleted":"0","num_feature":"8","num_nodes":"29","size_leaf_vector":"1"}},{"base_weights":[3.8597354E-4,4.4193178E-1,-1.5373232E-3,6.107498E-2,8.5873216E-1,-5.0195533E-1,5.892678E-4,-6.0138058E-2,5.0272185E-1,2.635901E-2,1.0591314E-1,-2.232847E-2,-1.0966128E-1,5.203184E-1,-1.7060589E-3,8.6127974E-2,-1.9516278E-2,6.301832E-2,-3.525379E-2,-4.813967E-2,8.9328036E-2,-2.5445642E-3,3.4040585E-3],"categories":[],"categories_nodes":[],"categories_segments":[],"categories_sizes":[],"default_left":[0,0,0,0,0,0,0,0,0,0,0,0,0,0,0,0,0,0,0,0,0,0,0],"id":31,"left_children":[1,3,5,7,9,11,13,-1,15,-1,-1,17,-1,19,21,-1,-1,-1,-1,-1,-1,-1,-1],"loss_changes":[1.89434E0,1.4832605E0,2.3640606E0,2.0962803E0,2.6260138E-1,2.6566653E0,2.6406407E0,0E0,1.2249826E0,0E0,0E0,1.5632896E0,0E0,4.0662403E0,1.8712589E0,0E0,0E0,0E0,0E0,0E0,0E0,0E0,0E0],"parents":[2147483647,0,0,1,1,2,2,3,3,4,4,5,5,6,6,8,8,11,11,13,13,14,14],"right_children":[2,4,6,8,10,12,14,-1,16,-1,-1,18,-1,20,22,-1,-1,-1,-1,-1,-1,-1,-1],"split_conditions":[3.9549904E0,3.8959043E0,4.0040517E0,-3.4382142E-2,8.6376184E-1,8.941944E-1,4.1449304E0,-6.0138058E-2,1.3070466E-1,2.635901E-2,1.0591314E-1,-9.080649E-3,-1.0966128E-1,3.8959043E0,5.6439392E1,8.6127974E-2,-1.9516278E-2,6.301832E-2,-3.525379E-2,-4.813967E-2,8.9328036E-2,-2.5445642E-3,3.4040585E-3],"split_indices":[2,3,2,0,5,5,2,0,7,0,0,7,0,3,6,0,0,0,0,0,0,0,0],"split_type":[0,0,0,0,0,0,0,0,0,0,0,0,0,0,0,0,0,0,0,0,0,0,0],"sum_hessian":[2.2288728E3,8.67428E0,2.2201985E3,5.1316767E0,3.5426037E0,8.400499E0,2.2117979E3,1.9080249E0,3.2236516E0,1.4756297E0,2.0669742E0,5.2243204E0,3.176179E0,8.732878E0,2.203065E3,1.9748749E0,1.2487768E0,1.4502037E0,3.7741168E0,2.290426E0,6.4424515E0,1.3240457E3,8.7901935E2],"tree_param":{"num_deleted":"0","num_feature":"8","num_nodes":"23","size_leaf_vector":"1"}},{"base_weights":[3.8752862E-4,3.1046167E-1,-2.1949834E-3,9.8754066E-1,8.56602E-2,5.246178E-4,-3.5671413E-1,1.1154934E-1,2.9841293E-2,-1.6730171E-1,7.7910566E-1,-1.196801E-2,8.095893E-2,-7.3709786E-2,-1.01719394E-1,2.9248311E-3,-8.992886E-2,2.1554036E-2,1.09380595E-1,4.410937E-3,-5.5978135E-3,-1.582111E-2,1.7768336E-2,4.7601447E-2,-2.7460009E-2],"categories":[],"categories_nodes":[],"categories_segments":[],"categories_sizes":[],"default_left":[0,0,0,0,0,0,0,0,0,0,0,0,0,0,0,0,0,0,0,0,0,0,0,0,0],"id":32,"left_children":[1,3,5,7,9,11,13,-1,-1,15,17,19,21,23,-1,-1,-1,-1,-1,-1,-1,-1,-1,-1,-1],"loss_changes":[1.7858754E0,2.719266E0,2.132816E0,6.361961E-2,2.7483363E0,2.2076733E0,3.072826E0,0E0,0E0,1.7180406E0,5.0308037E-1,4.695874E0,6.8608303E0,1.5516939E0,0E0,0E0,0E0,0E0,0E0,0E0,0E0,0E0,0E0,0E0,0E0],"parents":[2147483647,0,0,1,1,2,2,3,3,4,4,5,5,6,6,9,9,10,10,11,11,12,12,13,13],"right_children":[2,4,6,8,10,12,14,-1,-1,16,18,20,22,24,-1,-1,-1,-1,-1,-1,-1,-1,-1,-1,-1],"split_conditions":[-3.0401628E0,-2.60857E-1,4.2818243E2,1.9019548E0,-2.5738116E-2,5.3991127E-1,7.8298354E-1,1.1154934E-1,2.9841293E-2,3.072236E2,1.559647E2,-1.6677205E-1,-1.7872876E-1,7.422952E-1,-1.01719394E-1,2.9248311E-3,-8.992886E-2,2.1554036E-2,1.09380595E-1,4.410937E-3,-5.5978135E-3,-1.582111E-2,1.7768336E-2,4.7601447E-2,-2.7460009E-2],"split_indices":[0,7,4,5,7,0,0,0,0,3,3,7,7,5,0,0,0,0,0,0,0,0,0,0,0],"split_type":[0,0,0,0,0,0,0,0,0,0,0,0,0,0,0,0,0,0,0,0,0,0,0,0,0],"sum_hessian":[2.228346E3,1.742119E1,2.2109248E3,3.496661E0,1.3924529E1,2.1950842E3,1.5840497E1,2.4272768E0,1.0693842E0,1.0758629E1,3.1659007E0,1.9007251E3,2.9435925E2,1.1867204E1,3.973294E0,9.238096E0,1.5205321E0,1.7381421E0,1.4277586E0,8.357792E2,1.0649459E3,8.458087E1,2.0977837E2,2.8095405E0,9.057663E0],"tree_param":{"num_deleted":"0","num_feature":"8","num_nodes":"25","size_leaf_vector":"1"}},{"base_weights":[3.875491E-4,4.2169473E-1,-1.4219912E-3,6.1280306E-2,8.15617E-1,-4.6688175E-1,5.182585E-4,-5.6854814E-2,4.7508165E-1,2.4871035E-2,1.0104847E-1,1.7531979E-1,-8.6874604E-1,4.7658908E-1,-1.580494E-3,9.765165E-2,-5.8368794E-3,7.283536E-2,-3.28173E-2,4.039089E-3,-1.1043451E-1,-4.491706E-2,8.1670836E-2,-5.941724E-3,1.2195007E-3],"categories":[],"categories_nodes":[],"categories_segments":[],"categories_sizes":[],"default_left":[0,0,0,0,0,0,0,0,0,0,0,0,0,0,0,0,0,0,0,0,0,0,0,0,0],"id":33,"left_children":[1,3,5,7,9,11,13,-1,15,-1,-1,17,19,21,23,-1,-1,-1,-1,-1,-1,-1,-1,-1,-1],"loss_changes":[1.6997161E0,1.303742E0,2.0053115E0,1.8496103E0,2.4298263E-1,2.531129E0,2.210854E0,0E0,1.1810637E0,0E0,0E0,1.4586043E0,1.2949595E0,3.4248295E0,1.7561268E0,0E0,0E0,0E0,0E0,0E0,0E0,0E0,0E0,0E0,0E0],"parents":[2147483647,0,0,1,1,2,2,3,3,4,4,5,5,6,6,8,8,11,11,12,12,13,13,14,14],"right_children":[2,4,6,8,10,12,14,-1,16,-1,-1,18,20,22,24,-1,-1,-1,-1,-1,-1,-1,-1,-1,-1],"split_conditions":[3.9549904E0,3.8959043E0,4.0040517E0,-3.4382142E-2,8.6376184E-1,7.391381E-1,4.1449304E0,-5.6854814E-2,9.45958E-1,2.4871035E-2,1.0104847E-1,4.659864E1,-9.080649E-3,3.8959043E0,6.284806E-1,9.765165E-2,-5.8368794E-3,7.283536E-2,-3.28173E-2,4.039089E-3,-1.1043451E-1,-4.491706E-2,8.1670836E-2,-5.941724E-3,1.2195007E-3],"split_indices":[2,3,2,0,5,5,2,0,5,0,0,6,7,3,5,0,0,0,0,0,0,0,0,0,0],"split_type":[0,0,0,0,0,0,0,0,0,0,0,0,0,0,0,0,0,0,0,0,0,0,0,0,0],"sum_hessian":[2.2277227E3,8.534924E0,2.2191877E3,5.0604715E0,3.474452E0,8.217451E0,2.2109702E3,1.8582098E0,3.2022614E0,1.4710867E0,2.0033653E0,3.3799067E0,4.837545E0,8.711949E0,2.2022583E3,1.2225335E0,1.9797281E0,1.3978803E0,1.9820263E0,1.1661457E0,3.671399E0,2.2545996E0,6.4573493E0,4.229943E2,1.779264E3],"tree_param":{"num_deleted":"0","num_feature":"8","num_nodes":"25","size_leaf_vector":"1"}},{"base_weights":[4.0089912E-4,-2.0981007E-3,2.949442E-1,6.955822E-3,-8.689183E-2,5.443486E-1,-2.3390919E-1,-1.0606964E-3,2.2536334E-1,-1.5582836E-1,1.1872771E-1,-2.6945766E-2,1.1016592E0,-5.8537996E-1,2.8217503E-1,6.1911065E-4,-3.8283672E-2,8.065498E-2,1.5898127E-3,-7.2208256E-3,-6.395051E-2,2.4980316E-2,-5.5536516E-2,6.456524E-2,-2.8700829E-2,1.3382913E-1,3.4876692E-4,2.7778342E-2,-1.1131574E-1,-2.3911815E-2,6.8491094E-2],"categories":[],"categories_nodes":[],"categories_segments":[],"categories_sizes":[],"default_left":[0,0,0,0,0,0,0,0,0,0,0,0,0,0,0,0,0,0,0,0,0,0,0,0,0,0,0,0,0,0,0],"id":34,"left_children":[1,3,5,7,9,11,13,15,17,19,21,23,25,27,29,-1,-1,-1,-1,-1,-1,-1,-1,-1,-1,-1,-1,-1,-1,-1,-1],"loss_changes":[1.6407022E0,1.6975856E0,2.6007686E0,3.498656E0,3.0423124E0,4.182622E0,1.3821161E0,5.3411508E0,8.599843E0,6.432911E0,4.921486E0,1.4826937E0,1.7173109E0,2.2755208E0,8.7606084E-1,0E0,0E0,0E0,0E0,0E0,0E0,0E0,0E0,0E0,0E0,0E0,0E0,0E0,0E0,0E0,0E0],"parents":[2147483647,0,0,1,1,2,2,3,3,4,4,5,5,6,6,7,7,8,8,9,9,10,10,11,11,12,12,13,13,14,14],"right_children":[2,4,6,8,10,12,14,16,18,20,22,24,26,28,30,-1,-1,-1,-1,-1,-1,-1,-1,-1,-1,-1,-1,-1,-1,-1,-1],"split_conditions":[3.209887E0,1.5356873E2,2.481888E-1,1.3767647E2,5.851063E1,-2.8958809E-2,9.532319E-1,1.3151764E2,-4.377674E-1,2.411555E-1,3.47114E-1,-1.2632229E0,6.921637E1,1.2711902E1,8.190178E1,6.1911065E-4,-3.8283672E-2,8.065498E-2,1.5898127E-3,-7.2208256E-3,-6.395051E-2,2.4980316E-2,-5.5536516E-2,6.456524E-2,-2.8700829E-2,1.3382913E-1,3.4876692E-4,2.7778342E-2,-1.1131574E-1,-2.3911815E-2,6.8491094E-2],"split_indices":[5,3,7,3,6,7,0,3,7,0,7,1,2,2,6,0,0,0,0,0,0,0,0,0,0,0,0,0,0,0,0],"split_type":[0,0,0,0,0,0,0,0,0,0,0,0,0,0,0,0,0,0,0,0,0,0,0,0,0,0,0,0,0,0,0],"sum_hessian":[2.2271814E3,2.209429E3,1.7752625E1,1.9971042E3,2.1232455E2,1.204362E1,5.7090054E0,1.9273569E3,6.9747345E1,1.5919469E2,5.3129868E1,6.4171276E0,5.6264925E0,3.3162532E0,2.3927522E0,1.8923949E3,3.4962097E1,1.7722797E1,5.202455E1,1.3670912E2,2.2485567E1,4.5007675E1,8.122192E0,1.3759177E0,5.0412097E0,4.4491444E0,1.1773483E0,1.4380465E0,1.8782066E0,1.2199453E0,1.1728069E0],"tree_param":{"num_deleted":"0","num_feature":"8","num_nodes":"31","size_leaf_vector":"1"}},{"base_weights":[3.8011366E-4,1.1242068E-1,-6.241172E-3,9.711444E-2,6.805732E-2,-2.3068093E-1,-5.4594665E-4,1.7390465E-2,4.4425535E-1,9.4619125E-2,-3.0180314E-1,2.381601E-3,-4.5265266E-1,8.917677E-3,-4.0690713E-2,8.91483E-2,3.817545E-3,2.029047E-2,-4.1846897E-2,-1.3335118E-2,1.0010226E-3,-1.4042762E-2,-9.655577E-2],"categories":[],"categories_nodes":[],"categories_segments":[],"categories_sizes":[],"default_left":[0,0,0,0,0,0,0,0,0,0,0,0,0,0,0,0,0,0,0,0,0,0,0],"id":35,"left_children":[1,3,5,-1,7,9,11,13,15,-1,17,19,21,-1,-1,-1,-1,-1,-1,-1,-1,-1,-1],"loss_changes":[1.653192E0,4.6710243E0,2.6894996E0,0E0,2.2664948E0,4.6439342E0,2.7184885E0,3.2707899E0,2.530537E0,0E0,3.020831E0,2.1145804E0,1.9805615E0,0E0,0E0,0E0,0E0,0E0,0E0,0E0,0E0,0E0,0E0],"parents":[2147483647,0,0,1,1,2,2,4,4,5,5,6,6,7,7,8,8,10,10,11,11,12,12],"right_children":[2,4,6,-1,8,10,12,14,16,-1,18,20,22,-1,-1,-1,-1,-1,-1,-1,-1,-1,-1],"split_conditions":[-1.4135749E0,7.8554855E1,-1.0972304E0,9.711444E-2,3.1972888E2,1.437907E1,4.2818243E2,4.8051945E1,4.1823975E2,9.4619125E-2,8.4733826E1,2.4770658E1,7.8298354E-1,8.917677E-3,-4.0690713E-2,8.91483E-2,3.817545E-3,2.029047E-2,-4.1846897E-2,-1.3335118E-2,1.0010226E-3,-1.4042762E-2,-9.655577E-2],"split_indices":[0,4,0,0,4,6,4,6,3,0,3,6,0,0,0,0,0,0,0,0,0,0,0],"split_type":[0,0,0,0,0,0,0,0,0,0,0,0,0,0,0,0,0,0,0,0,0,0,0],"sum_hessian":[2.2265186E3,1.23347275E2,2.1031714E3,5.03309E0,1.18314186E2,5.107024E1,2.052101E3,1.05192894E2,1.3121293E1,2.2092726E0,4.886097E1,2.0398868E3,1.2214242E1,9.0646385E1,1.4546508E1,5.675434E0,7.445859E0,9.0350895E0,3.982588E1,1.07670616E2,1.9322162E3,8.384229E0,3.8300135E0],"tree_param":{"num_deleted":"0","num_feature":"8","num_nodes":"23","size_leaf_vector":"1"}},{"base_weights":[3.8466344E-4,4.0490353E-1,-1.3280773E-3,6.1863494E-1,-1.6637845E-1,-4.3777308E-1,4.588087E-4,-9.6034236E-2,9.632213E-1,-4.8322257E-2,2.0590803E-2,3.9345324E-2,-7.0343125E-1,4.3468276E-1,-1.4495926E-3,3.19371E-2,-4.773025E-2,1.2543146E-1,3.729608E-3,-2.0676893E-4,-1.0762395E-1,8.014726E-2,-3.635011E-2,3.4442549E-3,-2.2148953E-3],"categories":[],"categories_nodes":[],"categories_segments":[],"categories_sizes":[],"default_left":[0,0,0,0,0,0,0,0,0,0,0,0,0,0,0,0,0,0,0,0,0,0,0,0,0],"id":36,"left_children":[1,3,5,7,9,11,13,15,17,-1,-1,-1,19,21,23,-1,-1,-1,-1,-1,-1,-1,-1,-1,-1],"loss_changes":[1.5433513E0,1.2496834E0,1.730295E0,1.8278699E0,4.940803E-1,2.2744606E0,1.832306E0,6.595265E-1,1.2591023E0,0E0,0E0,0E0,1.884125E0,3.1239417E0,1.6365004E0,0E0,0E0,0E0,0E0,0E0,0E0,0E0,0E0,0E0,0E0],"parents":[2147483647,0,0,1,1,2,2,3,3,4,4,5,5,6,6,7,7,8,8,12,12,13,13,14,14],"right_children":[2,4,6,8,10,12,14,16,18,-1,-1,-1,20,22,24,-1,-1,-1,-1,-1,-1,-1,-1,-1,-1],"split_conditions":[3.9549904E0,2.9416868E-2,4.0040517E0,7.34838E-1,1.6702366E-3,6.4250076E-1,4.1449304E0,6.244492E-1,-4.1307053E-3,-4.8322257E-2,2.0590803E-2,3.9345324E-2,4.8444443E1,5.6763668E-2,-1.0867422E-1,3.19371E-2,-4.773025E-2,1.2543146E-1,3.729608E-3,-2.0676893E-4,-1.0762395E-1,8.014726E-2,-3.635011E-2,3.4442549E-3,-2.2148953E-3],"split_indices":[2,1,2,5,0,5,2,5,0,0,0,0,6,1,1,0,0,0,0,0,0,0,0,0,0],"split_type":[0,0,0,0,0,0,0,0,0,0,0,0,0,0,0,0,0,0,0,0,0,0,0,0,0],"sum_hessian":[2.2258096E3,8.391872E0,2.2174177E3,6.046741E0,2.3451312E0,8.046621E0,2.209371E3,2.201713E0,3.8450277E0,1.1059219E0,1.2392093E0,1.8323312E0,6.2142906E0,8.675331E0,2.2006958E3,1.1313801E0,1.070333E0,2.6555214E0,1.1895063E0,2.505758E0,3.7085326E0,5.9410954E0,2.7342353E0,8.0470123E2,1.3959945E3],"tree_param":{"num_deleted":"0","num_feature":"8","num_nodes":"25","size_leaf_vector":"1"}},{"base_weights":[3.7100117E-4,2.8917438E-1,-2.0052772E-3,8.669343E-1,5.977581E-2,1.9016685E-2,-4.0774815E-2,1.1020364E-1,2.6615102E-2,-2.0000713E-1,7.3470855E-1,-4.312307E-1,2.6550762E-2,1.1887801E-1,-7.359366E-2,-5.5893894E-2,2.7365133E-2,1.9726383E-2,1.0412307E-1,6.426158E-2,-5.547095E-2,1.8214379E-3,5.359139E-2,4.643369E-3,7.786136E-2,-1.3750046E-2,2.5263E-3],"categories":[],"categories_nodes":[],"categories_segments":[],"categories_sizes":[],"default_left":[0,0,0,0,0,0,0,0,0,0,0,0,0,0,0,0,0,0,0,0,0,0,0,0,0,0,0],"id":37,"left_children":[1,3,5,7,9,11,13,-1,-1,15,17,19,21,23,25,-1,-1,-1,-1,-1,-1,-1,-1,-1,-1,-1,-1],"loss_changes":[1.5285366E0,2.3572536E0,1.8013527E0,4.2588878E-1,2.6165133E0,4.873138E0,4.080295E0,0E0,0E0,2.0156379E0,4.7472882E-1,3.4917636E0,5.9797873E0,6.3148394E0,4.0795116E0,0E0,0E0,0E0,0E0,0E0,0E0,0E0,0E0,0E0,0E0,0E0,0E0],"parents":[2147483647,0,0,1,1,2,2,3,3,4,4,5,5,6,6,9,9,10,10,11,11,12,12,13,13,14,14],"right_children":[2,4,6,8,10,12,14,-1,-1,16,18,20,22,24,26,-1,-1,-1,-1,-1,-1,-1,-1,-1,-1,-1,-1],"split_conditions":[-3.0401628E0,-2.532042E-1,8.4494675E1,1.7415999E0,-2.5738116E-2,-3.0417397E0,-4.6415395E-1,1.1020364E-1,2.6615102E-2,7.74666E-1,6.2875295E0,-6.0926634E-1,8.4733826E1,4.8444443E1,1.6403791E0,-5.5893894E-2,2.7365133E-2,1.9726383E-2,1.0412307E-1,6.426158E-2,-5.547095E-2,1.8214379E-3,5.359139E-2,4.643369E-3,7.786136E-2,-1.3750046E-2,2.5263E-3],"split_indices":[0,7,4,5,7,1,7,0,0,5,1,7,3,6,1,0,0,0,0,0,0,0,0,0,0,0,0],"split_type":[0,0,0,0,0,0,0,0,0,0,0,0,0,0,0,0,0,0,0,0,0,0,0,0,0,0,0],"sum_hessian":[2.2254421E3,1.7176584E1,2.2082656E3,4.0918217E0,1.3084764E1,1.4321968E3,7.760689E2,2.3412836E0,1.7505379E0,9.956248E0,3.1285157E0,2.2645271E1,1.4095514E3,1.318824E2,6.4418646E2,5.561656E0,4.394592E0,1.7331784E0,1.3953373E0,1.9018002E0,2.0743471E1,1.3878729E3,2.1678568E1,1.1979798E2,1.208441E1,3.9101825E2,2.5316823E2],"tree_param":{"num_deleted":"0","num_feature":"8","num_nodes":"27","size_leaf_vector":"1"}},{"base_weights":[4.8494112E-4,-1.9551633E-1,3.907601E-3,-6.964687E-1,-6.088489E-2,3.893896E-1,6.996722E-4,1.4230596E-2,-9.326208E-1,5.5425096E-1,-3.8445765E-1,1.009171E0,-1.0342007E-1,-4.2415693E-2,2.0315342E-2,-3.1300463E-2,-1.11291245E-1,1.6480611E-1,1.92564E-2,-6.596643E-2,2.6410311E-2,1.2508889E-1,2.519157E-2,-9.790166E-2,5.224749E-2,2.699947E-3,-1.510762E-2,4.9732566E-2,5.65766E-4],"categories":[],"categories_nodes":[],"categories_segments":[],"categories_sizes":[],"default_left":[0,0,0,0,0,0,0,0,0,0,0,0,0,0,0,0,0,0,0,0,0,0,0,0,0,0,0,0,0],"id":38,"left_children":[1,3,5,7,9,11,13,-1,15,17,19,21,23,25,27,-1,-1,-1,-1,-1,-1,-1,-1,-1,-1,-1,-1,-1,-1],"loss_changes":[1.4939321E0,2.5353298E0,2.706122E0,1.71738E0,6.427197E0,5.620799E0,1.8373946E0,0E0,3.6381388E-1,4.102145E0,3.9312265E0,1.166213E0,6.522373E0,5.1281757E0,1.04372425E1,0E0,0E0,0E0,0E0,0E0,0E0,0E0,0E0,0E0,0E0,0E0,0E0,0E0,0E0],"parents":[2147483647,0,0,1,1,2,2,3,3,4,4,5,5,6,6,8,8,9,9,10,10,11,11,12,12,13,13,14,14],"right_children":[2,4,6,8,10,12,14,-1,16,18,20,22,24,26,28,-1,-1,-1,-1,-1,-1,-1,-1,-1,-1,-1,-1,-1,-1],"split_conditions":[2.5360304E-1,3.4763947E1,3.4103182E-1,9.042598E0,4.659864E1,4.0993797E1,4.2857143E1,1.4230596E-2,-5.378544E-1,1.198625E1,4.1391724E-1,4.1253093E-1,4.9798656E1,-1.653465E-1,4.3792336E1,-3.1300463E-2,-1.11291245E-1,1.6480611E-1,1.92564E-2,-6.596643E-2,2.6410311E-2,1.2508889E-1,2.519157E-2,-9.790166E-2,5.224749E-2,2.699947E-3,-1.510762E-2,4.9732566E-2,5.65766E-4],"split_indices":[5,6,5,3,6,6,6,0,7,2,0,1,6,0,6,0,0,0,0,0,0,0,0,0,0,0,0,0,0],"split_type":[0,0,0,0,0,0,0,0,0,0,0,0,0,0,0,0,0,0,0,0,0,0,0,0,0,0,0,0,0],"sum_hessian":[2.2247998E3,3.7220398E1,2.1875793E3,7.0001764E0,3.0220222E1,1.7060942E1,2.1705183E3,1.6251832E0,5.3749933E0,1.0171168E1,2.0049053E1,7.092845E0,9.968097E0,6.783464E2,1.492172E3,1.8281637E0,3.5468297E0,1.6437025E0,8.527466E0,1.4064068E1,5.984987E0,4.882475E0,2.2103703E0,3.920009E0,6.0480876E0,4.143807E2,2.6396567E2,4.3503166E1,1.4486688E3],"tree_param":{"num_deleted":"0","num_feature":"8","num_nodes":"29","size_leaf_vector":"1"}},{"base_weights":[4.8216528E-4,-1.8751348E-3,2.7249655E-1,1.3288799E-2,-5.9587907E-2,1.0354022E-1,8.4512174E-2,3.4849069E-3,1.9760858E-1,-4.5396066E-1,-1.4001511E-2,-2.167203E-1,3.574989E-1,6.129313E-4,-4.9890433E-2,3.566329E-2,-2.1776607E-2,-8.238505E-2,-2.063766E-2,-3.562051E-2,2.3408679E-3,-7.4288554E-2,1.8941289E-2,-1.3526812E-2,8.4304E-2],"categories":[],"categories_nodes":[],"categories_segments":[],"categories_sizes":[],"default_left":[0,0,0,0,0,0,0,0,0,0,0,0,0,0,0,0,0,0,0,0,0,0,0,0,0],"id":39,"left_children":[1,3,5,7,9,-1,11,13,15,17,19,21,23,-1,-1,-1,-1,-1,-1,-1,-1,-1,-1,-1,-1],"loss_changes":[1.4274334E0,1.9324286E0,2.6554403E0,3.1593938E0,8.253631E0,0E0,1.4288697E0,2.2103314E0,5.910278E0,4.1867476E0,5.293922E0,1.9432775E0,2.2670069E0,0E0,0E0,0E0,0E0,0E0,0E0,0E0,0E0,0E0,0E0,0E0,0E0],"parents":[2147483647,0,0,1,1,2,2,3,3,4,4,6,6,7,7,8,8,9,9,10,10,11,11,12,12],"right_children":[2,4,6,8,10,-1,12,14,16,18,20,22,24,-1,-1,-1,-1,-1,-1,-1,-1,-1,-1,-1,-1],"split_conditions":[9.033413E1,2.093091E-1,2.1072762E-1,1.7290889E-1,5.5337074E1,1.0354022E-1,1.9393735E0,8.3333336E1,8.447071E1,2.4509509E-1,5.9964025E-1,3.2247624E-1,9.82E1,6.129313E-4,-4.9890433E-2,3.566329E-2,-2.1776607E-2,-8.238505E-2,-2.063766E-2,-3.562051E-2,2.3408679E-3,-7.4288554E-2,1.8941289E-2,-1.3526812E-2,8.4304E-2],"split_indices":[6,7,0,7,6,0,5,6,2,7,5,7,2,0,0,0,0,0,0,0,0,0,0,0,0],"split_type":[0,0,0,0,0,0,0,0,0,0,0,0,0,0,0,0,0,0,0,0,0,0,0,0,0],"sum_hessian":[2.224326E3,2.2061997E3,1.8126009E1,1.747751E3,4.5844885E2,2.6922028E0,1.5433806E1,1.6604512E3,8.72998E1,4.6574E1,4.1187488E2,7.435298E0,7.998509E0,1.6527395E3,7.711661E0,6.3232815E1,2.4066982E1,1.7741179E1,2.8832823E1,3.9749672E1,3.7212518E2,2.8778005E0,4.5574975E0,4.3277545E0,3.6707544E0],"tree_param":{"num_deleted":"0","num_feature":"8","num_nodes":"25","size_leaf_vector":"1"}},{"base_weights":[3.9367986E-4,2.7741793E-1,-1.8572619E-3,8.872984E-1,8.1664115E-2,9.4538955E-3,-6.456455E-2,1.0128292E-1,2.4823835E-2,-3.1116343E-1,4.4043657E-1,3.0553997E-3,3.96761E-1,6.171053E-2,-1.7936172E-1,4.069857E-2,-9.97889E-2,-3.2519285E-2,7.0317976E-2,6.056362E-4,-4.993493E-2,-3.398892E-2,6.4275645E-2,-1.3107365E-3,7.145395E-2,-5.87101E-2,-4.7555836E-3],"categories":[],"categories_nodes":[],"categories_segments":[],"categories_sizes":[],"default_left":[0,0,0,0,0,0,0,0,0,0,0,0,0,0,0,0,0,0,0,0,0,0,0,0,0,0,0],"id":40,"left_children":[1,3,5,7,9,11,13,-1,-1,15,17,19,21,23,25,-1,-1,-1,-1,-1,-1,-1,-1,-1,-1,-1,-1],"loss_changes":[1.3879347E0,2.069314E0,1.5667545E0,9.013462E-2,2.2062893E0,4.636678E0,4.9041996E0,0E0,0E0,4.1514945E0,1.8556248E0,2.780325E0,5.728713E0,7.896742E0,9.488074E0,0E0,0E0,0E0,0E0,0E0,0E0,0E0,0E0,0E0,0E0,0E0,0E0],"parents":[2147483647,0,0,1,1,2,2,3,3,4,4,5,5,6,6,9,9,10,10,11,11,12,12,13,13,14,14],"right_children":[2,4,6,8,10,12,14,-1,-1,16,18,20,22,24,26,-1,-1,-1,-1,-1,-1,-1,-1,-1,-1,-1,-1],"split_conditions":[-3.0401628E0,-2.60857E-1,1.276059E2,1.9019548E0,3.48379E0,1.270875E2,4.8051945E1,1.0128292E-1,2.4823835E-2,3.4459484E1,3.576248E1,1.2467368E2,-1.265966E-1,4.625666E1,5.3160915E1,4.069857E-2,-9.97889E-2,-3.2519285E-2,7.0317976E-2,6.056362E-4,-4.993493E-2,-3.398892E-2,6.4275645E-2,-1.3107365E-3,7.145395E-2,-5.87101E-2,-4.7555836E-3],"split_indices":[0,7,3,5,1,2,6,0,0,6,6,4,0,6,6,0,0,0,0,0,0,0,0,0,0,0,0],"split_type":[0,0,0,0,0,0,0,0,0,0,0,0,0,0,0,0,0,0,0,0,0,0,0,0,0,0,0],"sum_hessian":[2.2239783E3,1.6939844E1,2.2070383E3,3.257675E0,1.3682169E1,1.8704884E3,3.3654996E2,2.2339804E0,1.0236945E0,6.5944576E0,7.0877113E0,1.8410807E3,2.9407633E1,1.604833E2,1.7606667E2,3.4225986E0,3.1718588E0,1.7501419E0,5.337569E0,1.831131E3,9.949763E0,7.2663536E0,2.214128E1,1.448613E2,1.5622002E1,4.2167606E1,1.3389906E2],"tree_param":{"num_deleted":"0","num_feature":"8","num_nodes":"27","size_leaf_vector":"1"}},{"base_weights":[3.761034E-4,-1.8890927E-3,2.7114242E-1,2.053638E-2,-3.2774303E-2,1.07113734E-1,8.845016E-2,6.814894E-1,1.6551701E-2,-1.03207864E-1,3.784267E-2,3.7245575E-1,-4.622597E-1,-2.6310325E-4,9.77875E-2,5.776286E-4,2.2763243E-2,-1.4909173E-2,1.3897146E-2,-4.702526E-2,6.9132694E-3,-2.3299238E-2,9.783622E-2,-1.02357045E-1,2.6121555E-2],"categories":[],"categories_nodes":[],"categories_segments":[],"categories_sizes":[],"default_left":[0,0,0,0,0,0,0,0,0,0,0,0,0,0,0,0,0,0,0,0,0,0,0,0,0],"id":41,"left_children":[1,3,5,7,9,-1,11,13,15,17,19,21,23,-1,-1,-1,-1,-1,-1,-1,-1,-1,-1,-1,-1],"loss_changes":[1.3648283E0,1.5292382E0,2.6034799E0,3.3577178E0,4.623333E0,0E0,2.6933258E0,1.5518396E0,2.8930888E0,5.19061E0,7.4173326E0,4.332472E0,2.6758049E0,0E0,0E0,0E0,0E0,0E0,0E0,0E0,0E0,0E0,0E0,0E0,0E0],"parents":[2147483647,0,0,1,1,2,2,3,3,4,4,6,6,7,7,8,8,9,9,10,10,11,11,12,12],"right_children":[2,4,6,8,10,-1,12,14,16,18,20,22,24,-1,-1,-1,-1,-1,-1,-1,-1,-1,-1,-1,-1],"split_conditions":[3.209887E0,-1.0508107E-3,7.38125E0,3.996357E0,9.3645513E-1,1.07113734E-1,2.481888E-1,3.8959043E0,6.710527E1,3.110989E-1,4.1574758E-2,-2.8958809E-2,9.532319E-1,-2.6310325E-4,9.77875E-2,5.776286E-4,2.2763243E-2,-1.4909173E-2,1.3897146E-2,-4.702526E-2,6.9132694E-3,-2.3299238E-2,9.783622E-2,-1.02357045E-1,2.6121555E-2],"split_indices":[5,7,2,4,1,0,7,3,6,7,7,7,0,0,0,0,0,0,0,0,0,0,0,0,0],"split_type":[0,0,0,0,0,0,0,0,0,0,0,0,0,0,0,0,0,0,0,0,0,0,0,0,0],"sum_hessian":[2.2234084E3,2.2059468E3,1.7461643E1,1.2781956E3,9.2775116E2,2.3422122E0,1.51194315E1,6.6407604E0,1.2715548E3,4.642477E2,4.6350348E2,1.018871E1,4.9307203E0,2.306952E0,4.3338084E0,1.2107736E3,6.0781166E1,3.906236E2,7.362409E1,2.6074263E1,4.3742923E2,5.4041314E0,4.7845793E0,2.54296E0,2.3877606E0],"tree_param":{"num_deleted":"0","num_feature":"8","num_nodes":"25","size_leaf_vector":"1"}},{"base_weights":[4.153838E-4,1.3222191E-2,-4.66214E-2,4.226247E-3,1.8197091E-1,-4.109715E-1,-6.80612E-3,2.563789E-2,-5.1748823E-2,3.4118283E-1,-1.7200597E-1,-1.8400724E-1,-8.323436E-1,-3.2605776E-1,2.6206642E-2,-2.905166E-3,1.2799877E-2,5.068059E-2,-7.319161E-3,4.052236E-2,-4.5536123E-2,-8.354073E-2,2.501764E-2,-4.2451914E-2,7.062409E-2,-9.647861E-2,3.318622E-2,5.121657E-2,-4.901007E-2,2.5337458E-2,-7.90365E-4],"categories":[],"categories_nodes":[],"categories_segments":[],"categories_sizes":[],"default_left":[0,0,0,0,0,0,0,0,0,0,0,0,0,0,0,0,0,0,0,0,0,0,0,0,0,0,0,0,0,0,0],"id":42,"left_children":[1,3,5,7,9,11,13,15,17,19,21,23,25,27,29,-1,-1,-1,-1,-1,-1,-1,-1,-1,-1,-1,-1,-1,-1,-1,-1],"loss_changes":[1.3401581E0,2.6537051E0,6.903912E0,1.9922179E0,5.0449486E0,4.3307896E0,4.5427895E0,6.7336574E0,5.5457587E0,3.3146896E0,8.082958E0,7.099242E0,2.8071775E0,5.805206E0,3.030426E0,0E0,0E0,0E0,0E0,0E0,0E0,0E0,0E0,0E0,0E0,0E0,0E0,0E0,0E0,0E0,0E0],"parents":[2147483647,0,0,1,1,2,2,3,3,4,4,5,5,6,6,7,7,8,8,9,9,10,10,11,11,12,12,13,13,14,14],"right_children":[2,4,6,8,10,12,14,16,18,20,22,24,26,28,30,-1,-1,-1,-1,-1,-1,-1,-1,-1,-1,-1,-1,-1,-1,-1,-1],"split_conditions":[2.093091E-1,1.7290889E-1,5.5337074E1,1.125069E0,2.1796311E-1,5.3000008E1,5.9964025E-1,8.5715574E-1,5.1277294E0,1.61457E2,4.948841E-1,5.1908405E1,3.3306146E-1,6.002747E1,7.309963E-1,-2.905166E-3,1.2799877E-2,5.068059E-2,-7.319161E-3,4.052236E-2,-4.5536123E-2,-8.354073E-2,2.501764E-2,-4.2451914E-2,7.062409E-2,-9.647861E-2,3.318622E-2,5.121657E-2,-4.901007E-2,2.5337458E-2,-7.90365E-4],"split_indices":[7,7,6,5,0,6,5,5,2,2,0,6,7,6,5,0,0,0,0,0,0,0,0,0,0,0,0,0,0,0,0],"split_type":[0,0,0,0,0,0,0,0,0,0,0,0,0,0,0,0,0,0,0,0,0,0,0,0,0,0,0,0,0,0,0],"sum_hessian":[2.2227078E3,1.7476031E3,4.7510474E2,1.6601273E3,8.7475845E1,4.588536E1,4.292194E2,1.2011891E3,4.5893814E2,6.036223E1,2.7113613E1,3.0755932E1,1.5129427E1,3.9392776E1,3.898266E2,7.8336676E2,4.1782236E2,1.613033E1,4.428078E2,5.6325066E1,4.037165E0,1.0163808E1,1.6949804E1,2.462604E1,6.1298933E0,1.373787E1,1.3915569E0,6.100158E0,3.3292618E1,5.005329E1,3.3977332E2],"tree_param":{"num_deleted":"0","num_feature":"8","num_nodes":"31","size_leaf_vector":"1"}},{"base_weights":[3.3005848E-4,1.01681486E-1,-5.6292773E-3,9.112846E-2,6.077777E-2,-2.0291023E-1,-6.688752E-4,1.4279332E-2,4.090042E-1,8.647346E-2,-2.6879865E-1,1.9182037E-3,-4.0857092E-1,8.363527E-3,-3.3620436E-2,1.4354083E-3,8.091189E-2,1.814335E-2,-3.7488323E-2,-1.241734E-2,8.9853676E-4,-1.0681695E-2,-9.165128E-2],"categories":[],"categories_nodes":[],"categories_segments":[],"categories_sizes":[],"default_left":[0,0,0,0,0,0,0,0,0,0,0,0,0,0,0,0,0,0,0,0,0,0,0],"id":43,"left_children":[1,3,5,-1,7,9,11,13,15,-1,17,19,21,-1,-1,-1,-1,-1,-1,-1,-1,-1,-1],"loss_changes":[1.3433928E0,4.0349994E0,2.0556355E0,0E0,1.9153193E0,3.8567698E0,2.1643293E0,2.5976865E0,2.1896813E0,0E0,2.4222376E0,1.8174601E0,1.8833206E0,0E0,0E0,0E0,0E0,0E0,0E0,0E0,0E0,0E0,0E0],"parents":[2147483647,0,0,1,1,2,2,4,4,5,5,6,6,7,7,8,8,10,10,11,11,12,12],"right_children":[2,4,6,-1,8,10,12,14,16,-1,18,20,22,-1,-1,-1,-1,-1,-1,-1,-1,-1,-1],"split_conditions":[-1.4135749E0,7.8554855E1,-1.0972304E0,9.112846E-2,3.1972888E2,1.437907E1,4.2818243E2,2.3272519E2,2.802989E0,8.647346E-2,8.4733826E1,2.4770658E1,7.8298354E-1,8.363527E-3,-3.3620436E-2,1.4354083E-3,8.091189E-2,1.814335E-2,-3.7488323E-2,-1.241734E-2,8.9853676E-4,-1.0681695E-2,-9.165128E-2],"split_indices":[0,4,0,0,4,6,4,3,1,0,3,6,0,0,0,0,0,0,0,0,0,0,0],"split_type":[0,0,0,0,0,0,0,0,0,0,0,0,0,0,0,0,0,0,0,0,0,0,0],"sum_hessian":[2.2222598E3,1.2251772E2,2.0997422E3,4.8689203E0,1.176488E2,5.0521893E1,2.0492202E3,1.047082E2,1.2940607E1,2.2319257E0,4.8289967E1,2.0372942E3,1.1926042E1,8.804639E1,1.6661808E1,7.0362897E0,5.9043174E0,9.073018E0,3.921695E1,1.0724631E2,1.9300479E3,8.240742E0,3.6852992E0],"tree_param":{"num_deleted":"0","num_feature":"8","num_nodes":"23","size_leaf_vector":"1"}},{"base_weights":[3.370148E-4,2.695899E-1,-1.8205823E-3,8.519687E-1,8.362167E-2,2.7894262E-2,-2.3770517E-2,9.731966E-2,2.4062393E-2,-2.8621858E-1,4.1785824E-1,4.7647145E-1,1.6107189E-2,2.3839174E-2,-8.398997E-2,3.7987497E-2,-9.378381E-2,-2.8619144E-2,6.550744E-2,1.2002449E-2,8.3378814E-2,-1.779139E-2,4.2446884E-3,1.1026829E-1,1.7468088E-3,-8.0817714E-2,-7.619643E-3],"categories":[],"categories_nodes":[],"categories_segments":[],"categories_sizes":[],"default_left":[0,0,0,0,0,0,0,0,0,0,0,0,0,0,0,0,0,0,0,0,0,0,0,0,0,0,0],"id":44,"left_children":[1,3,5,7,9,11,13,-1,-1,15,17,19,21,23,25,-1,-1,-1,-1,-1,-1,-1,-1,-1,-1,-1,-1],"loss_changes":[1.2916578E0,1.8430331E0,1.4394209E0,7.48117E-2,1.9127282E0,4.949977E0,3.6409588E0,0E0,0E0,3.6027246E0,1.52795E0,2.953103E0,4.6818876E0,4.8582053E0,3.102594E0,0E0,0E0,0E0,0E0,0E0,0E0,0E0,0E0,0E0,0E0,0E0,0E0],"parents":[2147483647,0,0,1,1,2,2,3,3,4,4,5,5,6,6,9,9,10,10,11,11,12,12,13,13,14,14],"right_children":[2,4,6,8,10,12,14,-1,-1,16,18,20,22,24,26,-1,-1,-1,-1,-1,-1,-1,-1,-1,-1,-1,-1],"split_conditions":[-3.0401628E0,-2.60857E-1,4.6901978E1,1.9019548E0,3.48379E0,-4.3234828E-1,9.6192616E-1,9.731966E-2,2.4062393E-2,3.4459484E1,3.576248E1,-5.5592436E-1,5.3411365E-1,-6.0926634E-1,9.661273E-1,3.7987497E-2,-9.378381E-2,-2.8619144E-2,6.550744E-2,1.2002449E-2,8.3378814E-2,-1.779139E-2,4.2446884E-3,1.1026829E-1,1.7468088E-3,-8.0817714E-2,-7.619643E-3],"split_indices":[0,7,4,5,1,0,5,0,0,6,6,0,5,7,5,0,0,0,0,0,0,0,0,0,0,0,0],"split_type":[0,0,0,0,0,0,0,0,0,0,0,0,0,0,0,0,0,0,0,0,0,0,0,0,0,0,0],"sum_hessian":[2.2215508E3,1.6675035E1,2.2048757E3,3.169175E0,1.350586E1,9.3663293E2,1.2682428E3,2.1507854E0,1.0183895E0,6.479649E0,7.0262117E0,2.2971975E1,9.1366095E2,7.0861426E2,5.5962854E2,3.4104621E0,3.069187E0,1.7187021E0,5.3075094E0,1.216875E1,1.08032255E1,1.08521935E2,8.0513904E2,3.149912E0,7.0546436E2,4.8650184E0,5.5476355E2],"tree_param":{"num_deleted":"0","num_feature":"8","num_nodes":"27","size_leaf_vector":"1"}},{"base_weights":[3.8623938E-4,3.6981247E-2,-1.5263825E-2,1.8950304E-2,8.730241E-1,-4.401598E-1,-2.9000535E-3,-1.4718635E-1,5.9706345E-2,1.1047283E0,5.019056E-2,-8.445792E-1,-1.5378565E-1,2.1326427E-1,-1.7634459E-2,8.675951E-3,-2.686635E-2,1.6917434E-2,-3.9300113E-3,-1.3447518E-2,1.519371E-1,-6.0934883E-2,6.352122E-2,-2.2597543E-3,-9.791045E-2,-2.9353375E-2,4.2153295E-2,-1.5318021E-2,4.6003155E-2,-1.9200439E-2,-1.0821213E-4],"categories":[],"categories_nodes":[],"categories_segments":[],"categories_sizes":[],"default_left":[0,0,0,0,0,0,0,0,0,0,0,0,0,0,0,0,0,0,0,0,0,0,0,0,0,0,0,0,0,0,0],"id":45,"left_children":[1,3,5,7,9,11,13,15,17,19,21,23,25,27,29,-1,-1,-1,-1,-1,-1,-1,-1,-1,-1,-1,-1,-1,-1,-1,-1],"loss_changes":[1.2731508E0,1.0021698E1,8.178791E0,4.4293933E0,2.6206007E0,4.9685307E0,4.826257E0,3.6864572E0,5.6962805E0,5.8073425E0,1.9812346E0,1.9712553E0,2.2941163E0,8.814368E0,4.093639E0,0E0,0E0,0E0,0E0,0E0,0E0,0E0,0E0,0E0,0E0,0E0,0E0,0E0,0E0,0E0,0E0],"parents":[2147483647,0,0,1,1,2,2,3,3,4,4,5,5,6,6,7,7,8,8,9,9,10,10,11,11,12,12,13,13,14,14],"right_children":[2,4,6,8,10,12,14,16,18,20,22,24,26,28,30,-1,-1,-1,-1,-1,-1,-1,-1,-1,-1,-1,-1,-1,-1,-1,-1],"split_conditions":[-3.0973718E-1,6.519337E1,-2.3980503E-1,6.354684E-1,-4.7635412E-1,8.0319935E-1,-1.0867422E-1,7.168125E1,9.6192616E-1,-3.5364142E-1,1.0957502E0,-2.6025736E-1,7.314693E1,-3.7912026E-1,-1.7697291E-2,8.675951E-3,-2.686635E-2,1.6917434E-2,-3.9300113E-3,-1.3447518E-2,1.519371E-1,-6.0934883E-2,6.352122E-2,-2.2597543E-3,-9.791045E-2,-2.9353375E-2,4.2153295E-2,-1.5318021E-2,4.6003155E-2,-1.9200439E-2,-1.0821213E-4],"split_indices":[1,6,1,5,1,5,1,2,5,7,5,0,3,7,1,0,0,0,0,0,0,0,0,0,0,0,0,0,0,0,0],"split_type":[0,0,0,0,0,0,0,0,0,0,0,0,0,0,0,0,0,0,0,0,0,0,0,0,0,0,0,0,0,0,0],"sum_hessian":[2.2210269E3,6.649025E2,1.5561243E3,6.518664E2,1.3036142E1,4.3021954E1,1.5131023E3,1.27897514E2,5.239689E2,9.9045105E0,3.1316316E0,1.702704E1,2.5994913E1,9.569621E1,1.4174061E3,4.3810734E1,8.4086784E1,2.4850111E2,2.7546774E2,2.6526043E0,7.2519064E0,1.4525162E0,1.6791154E0,2.5589876E0,1.4468054E1,2.13087E1,4.6862125E0,3.8662468E1,5.7033745E1,1.2196553E2,1.2954406E3],"tree_param":{"num_deleted":"0","num_feature":"8","num_nodes":"31","size_leaf_vector":"1"}},{"base_weights":[3.432605E-4,2.893508E-3,-2.2103094E-1,9.631785E-4,4.4098982E-1,-4.6858582E-1,2.3575123E-1,-7.453724E-3,9.155554E-2,1.2850964E-1,-1.1153561E-1,-1.4534843E-1,-1.299526E-1,-1.2769032E-1,1.0106547E-1,-1.8869522E-4,-6.119169E-2,-7.899632E-2,1.1583128E-2,-8.18023E-2,8.191877E-2,-1.1239864E-1,1.66307E-2,8.260648E-2,-6.1730094E-2],"categories":[],"categories_nodes":[],"categories_segments":[],"categories_sizes":[],"default_left":[0,0,0,0,0,0,0,0,0,0,0,0,0,0,0,0,0,0,0,0,0,0,0,0,0],"id":46,"left_children":[1,3,5,7,9,11,13,15,17,-1,19,21,-1,23,-1,-1,-1,-1,-1,-1,-1,-1,-1,-1,-1],"loss_changes":[1.2549379E0,1.8578643E0,2.9731627E0,1.6696413E0,4.638188E0,4.310768E0,2.8223372E0,6.740884E0,4.0749373E0,0E0,5.1052136E0,4.2089243E0,0E0,3.9644358E0,0E0,0E0,0E0,0E0,0E0,0E0,0E0,0E0,0E0,0E0,0E0],"parents":[2147483647,0,0,1,1,2,2,3,3,4,4,5,5,6,6,7,7,8,8,10,10,11,11,13,13],"right_children":[2,4,6,8,10,12,14,16,18,-1,20,22,-1,24,-1,-1,-1,-1,-1,-1,-1,-1,-1,-1,-1],"split_conditions":[3.7659466E-1,3.7285358E-1,1.5083556E0,7.5757545E1,1.6939849E-1,1.2015145E0,8.3333336E1,7.500002E1,-1.74582E-1,1.2850964E-1,4.948841E-1,2.535E1,-1.299526E-1,3.289E1,1.0106547E-1,-1.8869522E-4,-6.119169E-2,-7.899632E-2,1.1583128E-2,-8.18023E-2,8.191877E-2,-1.1239864E-1,1.66307E-2,8.260648E-2,-6.1730094E-2],"split_indices":[7,7,5,6,0,5,6,6,7,0,0,2,0,2,0,0,0,0,0,0,0,0,0,0,0],"split_type":[0,0,0,0,0,0,0,0,0,0,0,0,0,0,0,0,0,0,0,0,0,0,0,0,0],"sum_hessian":[2.2207314E3,2.1964155E3,2.4315945E1,2.187778E3,8.637536E0,1.5752807E1,8.563137E0,2.002632E3,1.8514606E2,2.8925927E0,5.7449436E0,1.2186971E1,3.565836E0,6.3977246E0,2.1654124E0,1.9853511E3,1.7280865E1,4.116682E0,1.8102937E2,3.3347287E0,2.4102151E0,2.314051E0,9.87292E0,1.9370971E0,4.460627E0],"tree_param":{"num_deleted":"0","num_feature":"8","num_nodes":"25","size_leaf_vector":"1"}},{"base_weights":[2.4758486E-4,-1.8494837E-3,2.5385576E-1,1.9013641E-2,-3.060658E-2,9.934061E-2,8.436899E-2,2.2148268E-1,6.8853823E-3,-1.3647477E-1,1.196707E-2,3.5560754E-1,-4.382053E-1,1.2262571E-2,8.343451E-2,-5.773464E-2,1.5673444E-3,1.5782813E-2,-2.1104397E-2,-2.510783E-2,4.353184E-3,-2.0509286E-2,9.259213E-2,-9.682549E-2,2.393717E-2],"categories":[],"categories_nodes":[],"categories_segments":[],"categories_sizes":[],"default_left":[0,0,0,0,0,0,0,0,0,0,0,0,0,0,0,0,0,0,0,0,0,0,0,0,0],"id":47,"left_children":[1,3,5,7,9,-1,11,13,15,17,19,21,23,-1,-1,-1,-1,-1,-1,-1,-1,-1,-1,-1,-1],"loss_changes":[1.181949E0,1.3230766E0,2.2007294E0,3.136978E0,4.180669E0,0E0,2.4124775E0,4.272073E0,6.205595E0,5.8709836E0,5.5090666E0,3.7179224E0,2.3464298E0,0E0,0E0,0E0,0E0,0E0,0E0,0E0,0E0,0E0,0E0,0E0,0E0],"parents":[2147483647,0,0,1,1,2,2,3,3,4,4,6,6,7,7,8,8,9,9,10,10,11,11,12,12],"right_children":[2,4,6,8,10,-1,12,14,16,18,20,22,24,-1,-1,-1,-1,-1,-1,-1,-1,-1,-1,-1,-1],"split_conditions":[3.209887E0,-1.0508107E-3,7.38125E0,6.3773527E0,3.9547327E-1,9.934061E-2,2.481888E-1,6.219389E0,8.105E0,5.9965927E-2,6.415042E-2,-2.8958809E-2,9.532319E-1,1.2262571E-2,8.343451E-2,-5.773464E-2,1.5673444E-3,1.5782813E-2,-2.1104397E-2,-2.510783E-2,4.353184E-3,-2.0509286E-2,9.259213E-2,-9.682549E-2,2.393717E-2],"split_indices":[5,7,2,3,1,0,7,3,2,7,7,7,0,0,0,0,0,0,0,0,0,0,0,0,0],"split_type":[0,0,0,0,0,0,0,0,0,0,0,0,0,0,0,0,0,0,0,0,0,0,0,0,0],"sum_hessian":[2.2205203E3,2.203294E3,1.7226177E1,1.2771019E3,9.26192E2,2.3053954E0,1.4920782E1,7.120159E1,1.2059004E3,2.6500262E2,6.6118945E2,1.0032824E1,4.887959E0,6.234517E1,8.8564205E0,1.6911692E1,1.1889886E3,5.3345787E1,2.1165683E2,7.009526E1,5.910942E2,5.381964E0,4.650859E0,2.5018418E0,2.3861172E0],"tree_param":{"num_deleted":"0","num_feature":"8","num_nodes":"25","size_leaf_vector":"1"}},{"base_weights":[2.6099657E-4,2.8149847E-2,-2.0412661E-2,8.24963E-1,2.1667475E-2,2.8469628E-2,-6.180682E-2,1.1384343E0,-4.611173E-2,-7.722495E-1,2.6985891E-2,-2.333956E-2,1.7468669E-1,1.106805E0,-6.827003E-2,1.3584854E-1,2.277995E-2,4.2554405E-2,-1.1418523E-1,6.964539E-2,1.9338335E-3,1.9571012E-2,-4.676441E-3,2.4334362E-2,-4.1421454E-2,2.5136877E-2,1.5091279E-1,-2.695076E-2,-2.4729336E-3],"categories":[],"categories_nodes":[],"categories_segments":[],"categories_sizes":[],"default_left":[0,0,0,0,0,0,0,0,0,0,0,0,0,0,0,0,0,0,0,0,0,0,0,0,0,0,0,0,0],"id":48,"left_children":[1,3,5,7,9,11,13,15,-1,17,19,21,23,25,27,-1,-1,-1,-1,-1,-1,-1,-1,-1,-1,-1,-1,-1,-1],"loss_changes":[1.281108E0,4.868004E0,2.5837843E0,3.5914254E0,3.9869604E0,4.441666E0,5.2966766E0,9.737978E-1,0E0,3.2680104E0,4.7685456E0,2.233086E0,6.3021584E0,9.4919634E-1,6.025159E0,0E0,0E0,0E0,0E0,0E0,0E0,0E0,0E0,0E0,0E0,0E0,0E0,0E0,0E0],"parents":[2147483647,0,0,1,1,2,2,3,3,4,4,5,5,6,6,7,7,9,9,10,10,11,11,12,12,13,13,14,14],"right_children":[2,4,6,8,10,12,14,16,-1,18,20,22,24,26,28,-1,-1,-1,-1,-1,-1,-1,-1,-1,-1,-1,-1,-1,-1],"split_conditions":[4.7280212E1,-7.520287E-1,4.8251747E1,-8.6468376E-2,-5.5592436E-1,4.2857143E1,-5.2179414E-1,4.6901978E1,-4.611173E-2,-5.1439655E-1,-4.5033193E-1,2.073178E1,2.1433777E2,4.9085354E1,5.2499992E1,1.3584854E-1,2.277995E-2,4.2554405E-2,-1.1418523E-1,6.964539E-2,1.9338335E-3,1.9571012E-2,-4.676441E-3,2.4334362E-2,-4.1421454E-2,2.5136877E-2,1.5091279E-1,-2.695076E-2,-2.4729336E-3],"split_indices":[3,0,6,7,0,6,7,4,0,7,0,6,2,6,6,0,0,0,0,0,0,0,0,0,0,0,0,0,0],"split_type":[0,0,0,0,0,0,0,0,0,0,0,0,0,0,0,0,0,0,0,0,0,0,0,0,0,0,0,0,0],"sum_hessian":[2.2199714E3,9.449152E2,1.2750563E3,6.606301E0,9.383089E2,5.8479047E2,6.9026575E2,5.4039392E0,1.2023618E0,5.284284E0,9.3302466E2,4.3241348E2,1.5237698E2,2.8602324E0,6.874055E2,3.9561515E0,1.4477878E0,1.2103795E0,4.0739045E0,9.520611E0,9.23504E2,4.1063847E1,3.9134964E2,1.3699252E2,1.5384462E1,1.4346378E0,1.4255947E0,1.2135125E2,5.6605426E2],"tree_param":{"num_deleted":"0","num_feature":"8","num_nodes":"29","size_leaf_vector":"1"}},{"base_weights":[3.3085927E-4,1.3685925E-1,-3.571589E-3,-1.6350825E-1,2.4923564E-1,-3.5577482E-1,-5.1074463E-4,-4.5701328E-1,3.3762035E-1,7.2241545E-1,9.0671994E-2,1.3837926E-1,-5.709985E-1,4.04776E-1,-3.983505E-3,7.739074E-2,-7.394316E-2,7.523945E-2,-6.4657986E-2,1.20135926E-1,2.8636353E-3,-1.0811484E-2,4.6862807E-2,7.333715E-2,-2.830174E-2,-8.843435E-2,2.1206299E-2,9.769609E-2,-9.059655E-3,-4.7051357E-3,1.4297977E-3],"categories":[],"categories_nodes":[],"categories_segments":[],"categories_sizes":[],"default_left":[0,0,0,0,0,0,0,0,0,0,0,0,0,0,0,0,0,0,0,0,0,0,0,0,0,0,0,0,0,0,0],"id":49,"left_children":[1,3,5,7,9,11,13,15,17,19,21,23,25,27,29,-1,-1,-1,-1,-1,-1,-1,-1,-1,-1,-1,-1,-1,-1,-1,-1],"loss_changes":[1.1835387E0,2.1244006E0,2.3280916E0,2.7151544E0,3.3347533E0,2.0578425E0,3.0165737E0,4.5369844E0,3.3464727E0,3.697546E0,2.6869109E0,1.8247467E0,3.415636E0,5.249729E0,1.6737118E0,0E0,0E0,0E0,0E0,0E0,0E0,0E0,0E0,0E0,0E0,0E0,0E0,0E0,0E0,0E0,0E0],"parents":[2147483647,0,0,1,1,2,2,3,3,4,4,5,5,6,6,7,7,8,8,9,9,10,10,11,11,12,12,13,13,14,14],"right_children":[2,4,6,8,10,12,14,16,18,20,22,24,26,28,30,-1,-1,-1,-1,-1,-1,-1,-1,-1,-1,-1,-1,-1,-1,-1,-1],"split_conditions":[-2.0262632E0,-2.4851391E0,-1.823999E0,1.5053047E2,3.1728056E1,1.08888054E2,-1.6148199E0,9.82E1,3.9712914E1,-2.4708374E0,-2.2655628E0,-1.9348005E0,1.88925E2,-2.9287696E-1,4.2857143E1,7.739074E-2,-7.394316E-2,7.523945E-2,-6.4657986E-2,1.20135926E-1,2.8636353E-3,-1.0811484E-2,4.6862807E-2,7.333715E-2,-2.830174E-2,-8.843435E-2,2.1206299E-2,9.769609E-2,-9.059655E-3,-4.7051357E-3,1.4297977E-3],"split_indices":[0,1,0,4,6,2,0,2,6,0,0,0,2,7,6,0,0,0,0,0,0,0,0,0,0,0,0,0,0,0,0],"split_type":[0,0,0,0,0,0,0,0,0,0,0,0,0,0,0,0,0,0,0,0,0,0,0,0,0,0,0,0,0,0,0],"sum_hessian":[2.2194595E3,6.073003E1,2.1587295E3,1.6410877E1,4.4319153E1,1.7606117E1,2.1411233E3,1.0404889E1,6.0059876E0,1.0231297E1,3.4087856E1,5.449984E0,1.2156134E1,1.720891E1,2.1239146E3,1.6169822E0,8.787908E0,4.3910027E0,1.614985E0,5.61998E0,4.611317E0,2.2806614E1,1.1281241E1,1.9526289E0,3.4973552E0,8.5896225E0,3.5665114E0,7.5342393E0,9.67467E0,6.3243616E2,1.4914784E3],"tree_param":{"num_deleted":"0","num_feature":"8","num_nodes":"31","size_leaf_vector":"1"}},